digraph Tree {
node [shape=box] ;
0 [label="X[1] <= 0.0825\ngini = 0.9998\nsamples = 6400\nvalue = [1, 1, 1 ..., 1, 1, 1]"] ;
1 [label="X[1] <= 0.072\ngini = 0.9794\nsamples = 60\nvalue = [0, 0, 0 ..., 0, 0, 0]"] ;
0 -> 1 [labeldistance=2.5, labelangle=45, headlabel="True"] ;
2 [label="X[0] <= 6.8664\ngini = 0.9792\nsamples = 55\nvalue = [0, 0, 0 ..., 0, 0, 0]"] ;
1 -> 2 ;
3 [label="X[1] <= 0.0524\ngini = 0.9671\nsamples = 34\nvalue = [0, 0, 0 ..., 0, 0, 0]"] ;
2 -> 3 ;
4 [label="X[8] <= 0.5\ngini = 0.9524\nsamples = 21\nvalue = [0, 0, 0 ..., 0, 0, 0]"] ;
3 -> 4 ;
5 [label="X[3] <= 0.5\ngini = 0.9444\nsamples = 18\nvalue = [0, 0, 0 ..., 0, 0, 0]"] ;
4 -> 5 ;
6 [label="X[2] <= 20.0\ngini = 0.6667\nsamples = 3\nvalue = [0, 0, 0 ..., 0, 0, 0]"] ;
5 -> 6 ;
7 [label="X[0] <= 2.3675\ngini = 0.5\nsamples = 2\nvalue = [0, 0, 0 ..., 0, 0, 0]"] ;
6 -> 7 ;
8 [label="gini = 0.0\nsamples = 1\nvalue = [0, 0, 0 ..., 0, 0, 0]"] ;
7 -> 8 ;
9 [label="gini = 0.0\nsamples = 1\nvalue = [0, 0, 0 ..., 0, 0, 0]"] ;
7 -> 9 ;
10 [label="gini = 0.0\nsamples = 1\nvalue = [0, 0, 0 ..., 0, 0, 0]"] ;
6 -> 10 ;
11 [label="X[2] <= 2.0\ngini = 0.9333\nsamples = 15\nvalue = [0, 0, 0 ..., 0, 0, 0]"] ;
5 -> 11 ;
12 [label="X[7] <= 0.5\ngini = 0.5\nsamples = 2\nvalue = [0, 0, 0 ..., 0, 0, 0]"] ;
11 -> 12 ;
13 [label="gini = 0.0\nsamples = 1\nvalue = [0, 0, 0 ..., 0, 0, 0]"] ;
12 -> 13 ;
14 [label="gini = 0.0\nsamples = 1\nvalue = [0, 0, 0 ..., 0, 0, 0]"] ;
12 -> 14 ;
15 [label="X[6] <= 0.5\ngini = 0.9231\nsamples = 13\nvalue = [0, 0, 0 ..., 0, 0, 0]"] ;
11 -> 15 ;
16 [label="X[0] <= 0.4833\ngini = 0.9167\nsamples = 12\nvalue = [0, 0, 0 ..., 0, 0, 0]"] ;
15 -> 16 ;
17 [label="gini = 0.0\nsamples = 1\nvalue = [0, 0, 0 ..., 0, 0, 0]"] ;
16 -> 17 ;
18 [label="X[0] <= 0.6592\ngini = 0.9091\nsamples = 11\nvalue = [0, 0, 0 ..., 0, 0, 0]"] ;
16 -> 18 ;
19 [label="gini = 0.0\nsamples = 1\nvalue = [0, 0, 0 ..., 0, 0, 0]"] ;
18 -> 19 ;
20 [label="X[1] <= 0.0082\ngini = 0.9\nsamples = 10\nvalue = [0, 0, 0 ..., 0, 0, 0]"] ;
18 -> 20 ;
21 [label="X[4] <= 4.0\ngini = 0.5\nsamples = 2\nvalue = [0, 0, 0 ..., 0, 0, 0]"] ;
20 -> 21 ;
22 [label="gini = 0.0\nsamples = 1\nvalue = [0, 0, 0 ..., 0, 0, 0]"] ;
21 -> 22 ;
23 [label="gini = 0.0\nsamples = 1\nvalue = [0, 0, 0 ..., 0, 0, 0]"] ;
21 -> 23 ;
24 [label="X[5] <= 0.5\ngini = 0.875\nsamples = 8\nvalue = [0, 0, 0 ..., 0, 0, 0]"] ;
20 -> 24 ;
25 [label="X[3] <= 3.0\ngini = 0.6667\nsamples = 3\nvalue = [0, 0, 0 ..., 0, 0, 0]"] ;
24 -> 25 ;
26 [label="X[4] <= 5.0\ngini = 0.5\nsamples = 2\nvalue = [0, 0, 0 ..., 0, 0, 0]"] ;
25 -> 26 ;
27 [label="gini = 0.0\nsamples = 1\nvalue = [0, 0, 0 ..., 0, 0, 0]"] ;
26 -> 27 ;
28 [label="gini = 0.0\nsamples = 1\nvalue = [0, 0, 0 ..., 0, 0, 0]"] ;
26 -> 28 ;
29 [label="gini = 0.0\nsamples = 1\nvalue = [0, 0, 0 ..., 0, 0, 0]"] ;
25 -> 29 ;
30 [label="X[1] <= 0.0145\ngini = 0.8\nsamples = 5\nvalue = [0, 0, 0 ..., 0, 0, 0]"] ;
24 -> 30 ;
31 [label="gini = 0.0\nsamples = 1\nvalue = [0, 0, 0 ..., 0, 0, 0]"] ;
30 -> 31 ;
32 [label="X[4] <= 1.5\ngini = 0.75\nsamples = 4\nvalue = [0, 0, 0 ..., 0, 0, 0]"] ;
30 -> 32 ;
33 [label="gini = 0.0\nsamples = 1\nvalue = [0, 0, 0 ..., 0, 0, 0]"] ;
32 -> 33 ;
34 [label="X[4] <= 2.5\ngini = 0.6667\nsamples = 3\nvalue = [0, 0, 0 ..., 0, 0, 0]"] ;
32 -> 34 ;
35 [label="gini = 0.0\nsamples = 1\nvalue = [0, 0, 0 ..., 0, 0, 0]"] ;
34 -> 35 ;
36 [label="X[0] <= 3.6772\ngini = 0.5\nsamples = 2\nvalue = [0, 0, 0 ..., 0, 0, 0]"] ;
34 -> 36 ;
37 [label="gini = 0.0\nsamples = 1\nvalue = [0, 0, 0 ..., 0, 0, 0]"] ;
36 -> 37 ;
38 [label="gini = 0.0\nsamples = 1\nvalue = [0, 0, 0 ..., 0, 0, 0]"] ;
36 -> 38 ;
39 [label="gini = 0.0\nsamples = 1\nvalue = [0, 0, 0 ..., 0, 0, 0]"] ;
15 -> 39 ;
40 [label="X[3] <= 2.0\ngini = 0.6667\nsamples = 3\nvalue = [0, 0, 0 ..., 0, 0, 0]"] ;
4 -> 40 ;
41 [label="gini = 0.0\nsamples = 1\nvalue = [0, 0, 0 ..., 0, 0, 0]"] ;
40 -> 41 ;
42 [label="X[5] <= 0.5\ngini = 0.5\nsamples = 2\nvalue = [0, 0, 0 ..., 0, 0, 0]"] ;
40 -> 42 ;
43 [label="gini = 0.0\nsamples = 1\nvalue = [0, 0, 0 ..., 0, 0, 0]"] ;
42 -> 43 ;
44 [label="gini = 0.0\nsamples = 1\nvalue = [0, 0, 0 ..., 0, 0, 0]"] ;
42 -> 44 ;
45 [label="X[3] <= 3.5\ngini = 0.8994\nsamples = 13\nvalue = [0, 0, 0 ..., 0, 0, 0]"] ;
3 -> 45 ;
46 [label="X[5] <= 0.5\ngini = 0.8438\nsamples = 8\nvalue = [0, 0, 0 ..., 0, 0, 0]"] ;
45 -> 46 ;
47 [label="X[1] <= 0.0683\ngini = 0.4444\nsamples = 3\nvalue = [0, 0, 0 ..., 0, 0, 0]"] ;
46 -> 47 ;
48 [label="gini = 0.0\nsamples = 2\nvalue = [0, 0, 0 ..., 0, 0, 0]"] ;
47 -> 48 ;
49 [label="gini = 0.0\nsamples = 1\nvalue = [0, 0, 0 ..., 0, 0, 0]"] ;
47 -> 49 ;
50 [label="X[1] <= 0.0552\ngini = 0.8\nsamples = 5\nvalue = [0, 0, 0 ..., 0, 0, 0]"] ;
46 -> 50 ;
51 [label="gini = 0.0\nsamples = 1\nvalue = [0, 0, 0 ..., 0, 0, 0]"] ;
50 -> 51 ;
52 [label="X[0] <= 2.7758\ngini = 0.75\nsamples = 4\nvalue = [0, 0, 0 ..., 0, 0, 0]"] ;
50 -> 52 ;
53 [label="gini = 0.0\nsamples = 1\nvalue = [0, 0, 0 ..., 0, 0, 0]"] ;
52 -> 53 ;
54 [label="X[3] <= 2.5\ngini = 0.6667\nsamples = 3\nvalue = [0, 0, 0 ..., 0, 0, 0]"] ;
52 -> 54 ;
55 [label="gini = 0.0\nsamples = 1\nvalue = [0, 0, 0 ..., 0, 0, 0]"] ;
54 -> 55 ;
56 [label="X[4] <= 6.5\ngini = 0.5\nsamples = 2\nvalue = [0, 0, 0 ..., 0, 0, 0]"] ;
54 -> 56 ;
57 [label="gini = 0.0\nsamples = 1\nvalue = [0, 0, 0 ..., 0, 0, 0]"] ;
56 -> 57 ;
58 [label="gini = 0.0\nsamples = 1\nvalue = [0, 0, 0 ..., 0, 0, 0]"] ;
56 -> 58 ;
59 [label="X[1] <= 0.0622\ngini = 0.72\nsamples = 5\nvalue = [0, 0, 0 ..., 0, 0, 0]"] ;
45 -> 59 ;
60 [label="X[0] <= 3.1407\ngini = 0.4444\nsamples = 3\nvalue = [0, 0, 0 ..., 0, 0, 0]"] ;
59 -> 60 ;
61 [label="gini = 0.0\nsamples = 1\nvalue = [0, 0, 0 ..., 0, 0, 0]"] ;
60 -> 61 ;
62 [label="gini = 0.0\nsamples = 2\nvalue = [0, 0, 0 ..., 0, 0, 0]"] ;
60 -> 62 ;
63 [label="X[7] <= 0.5\ngini = 0.5\nsamples = 2\nvalue = [0, 0, 0 ..., 0, 0, 0]"] ;
59 -> 63 ;
64 [label="gini = 0.0\nsamples = 1\nvalue = [0, 0, 0 ..., 0, 0, 0]"] ;
63 -> 64 ;
65 [label="gini = 0.0\nsamples = 1\nvalue = [0, 0, 0 ..., 0, 0, 0]"] ;
63 -> 65 ;
66 [label="X[0] <= 6.9735\ngini = 0.9433\nsamples = 21\nvalue = [0, 0, 0 ..., 0, 0, 0]"] ;
2 -> 66 ;
67 [label="gini = 0.0\nsamples = 2\nvalue = [0, 0, 0 ..., 0, 0, 0]"] ;
66 -> 67 ;
68 [label="X[0] <= 7.4209\ngini = 0.9418\nsamples = 19\nvalue = [0, 0, 0 ..., 0, 0, 0]"] ;
66 -> 68 ;
69 [label="X[0] <= 7.1771\ngini = 0.625\nsamples = 4\nvalue = [0, 0, 0 ..., 0, 0, 0]"] ;
68 -> 69 ;
70 [label="X[2] <= 9.5\ngini = 0.5\nsamples = 2\nvalue = [0, 0, 0 ..., 0, 0, 0]"] ;
69 -> 70 ;
71 [label="gini = 0.0\nsamples = 1\nvalue = [0, 0, 0 ..., 0, 0, 0]"] ;
70 -> 71 ;
72 [label="gini = 0.0\nsamples = 1\nvalue = [0, 0, 0 ..., 0, 0, 0]"] ;
70 -> 72 ;
73 [label="gini = 0.0\nsamples = 2\nvalue = [0, 0, 0 ..., 0, 0, 0]"] ;
69 -> 73 ;
74 [label="X[2] <= 2.5\ngini = 0.9333\nsamples = 15\nvalue = [0, 0, 0 ..., 0, 0, 0]"] ;
68 -> 74 ;
75 [label="X[1] <= 0.0356\ngini = 0.6667\nsamples = 3\nvalue = [0, 0, 0 ..., 0, 0, 0]"] ;
74 -> 75 ;
76 [label="gini = 0.0\nsamples = 1\nvalue = [0, 0, 0 ..., 0, 0, 0]"] ;
75 -> 76 ;
77 [label="X[0] <= 8.0411\ngini = 0.5\nsamples = 2\nvalue = [0, 0, 0 ..., 0, 0, 0]"] ;
75 -> 77 ;
78 [label="gini = 0.0\nsamples = 1\nvalue = [0, 0, 0 ..., 0, 0, 0]"] ;
77 -> 78 ;
79 [label="gini = 0.0\nsamples = 1\nvalue = [0, 0, 0 ..., 0, 0, 0]"] ;
77 -> 79 ;
80 [label="X[2] <= 4.0\ngini = 0.9167\nsamples = 12\nvalue = [0, 0, 0 ..., 0, 0, 0]"] ;
74 -> 80 ;
81 [label="gini = 0.0\nsamples = 1\nvalue = [0, 0, 0 ..., 0, 0, 0]"] ;
80 -> 81 ;
82 [label="X[3] <= 0.5\ngini = 0.9091\nsamples = 11\nvalue = [0, 0, 0 ..., 0, 0, 0]"] ;
80 -> 82 ;
83 [label="X[2] <= 7.0\ngini = 0.75\nsamples = 4\nvalue = [0, 0, 0 ..., 0, 0, 0]"] ;
82 -> 83 ;
84 [label="gini = 0.0\nsamples = 1\nvalue = [0, 0, 0 ..., 0, 0, 0]"] ;
83 -> 84 ;
85 [label="X[1] <= 0.0668\ngini = 0.6667\nsamples = 3\nvalue = [0, 0, 0 ..., 0, 0, 0]"] ;
83 -> 85 ;
86 [label="gini = 0.0\nsamples = 1\nvalue = [0, 0, 0 ..., 0, 0, 0]"] ;
85 -> 86 ;
87 [label="X[0] <= 9.0734\ngini = 0.5\nsamples = 2\nvalue = [0, 0, 0 ..., 0, 0, 0]"] ;
85 -> 87 ;
88 [label="gini = 0.0\nsamples = 1\nvalue = [0, 0, 0 ..., 0, 0, 0]"] ;
87 -> 88 ;
89 [label="gini = 0.0\nsamples = 1\nvalue = [0, 0, 0 ..., 0, 0, 0]"] ;
87 -> 89 ;
90 [label="X[4] <= 2.0\ngini = 0.8571\nsamples = 7\nvalue = [0, 0, 0 ..., 0, 0, 0]"] ;
82 -> 90 ;
91 [label="gini = 0.0\nsamples = 1\nvalue = [0, 0, 0 ..., 0, 0, 0]"] ;
90 -> 91 ;
92 [label="X[1] <= 0.0188\ngini = 0.8333\nsamples = 6\nvalue = [0, 0, 0 ..., 0, 0, 0]"] ;
90 -> 92 ;
93 [label="gini = 0.0\nsamples = 1\nvalue = [0, 0, 0 ..., 0, 0, 0]"] ;
92 -> 93 ;
94 [label="X[5] <= 0.5\ngini = 0.8\nsamples = 5\nvalue = [0, 0, 0 ..., 0, 0, 0]"] ;
92 -> 94 ;
95 [label="X[4] <= 3.5\ngini = 0.6667\nsamples = 3\nvalue = [0, 0, 0 ..., 0, 0, 0]"] ;
94 -> 95 ;
96 [label="gini = 0.0\nsamples = 1\nvalue = [0, 0, 0 ..., 0, 0, 0]"] ;
95 -> 96 ;
97 [label="X[1] <= 0.0516\ngini = 0.5\nsamples = 2\nvalue = [0, 0, 0 ..., 0, 0, 0]"] ;
95 -> 97 ;
98 [label="gini = 0.0\nsamples = 1\nvalue = [0, 0, 0 ..., 0, 0, 0]"] ;
97 -> 98 ;
99 [label="gini = 0.0\nsamples = 1\nvalue = [0, 0, 0 ..., 0, 0, 0]"] ;
97 -> 99 ;
100 [label="X[3] <= 3.0\ngini = 0.5\nsamples = 2\nvalue = [0, 0, 0 ..., 0, 0, 0]"] ;
94 -> 100 ;
101 [label="gini = 0.0\nsamples = 1\nvalue = [0, 0, 0 ..., 0, 0, 0]"] ;
100 -> 101 ;
102 [label="gini = 0.0\nsamples = 1\nvalue = [0, 0, 0 ..., 0, 0, 0]"] ;
100 -> 102 ;
103 [label="X[2] <= 14.5\ngini = 0.56\nsamples = 5\nvalue = [0, 0, 0 ..., 0, 0, 0]"] ;
1 -> 103 ;
104 [label="X[4] <= 4.0\ngini = 0.5\nsamples = 2\nvalue = [0, 0, 0 ..., 0, 0, 0]"] ;
103 -> 104 ;
105 [label="gini = 0.0\nsamples = 1\nvalue = [0, 0, 0 ..., 0, 0, 0]"] ;
104 -> 105 ;
106 [label="gini = 0.0\nsamples = 1\nvalue = [0, 0, 0 ..., 0, 0, 0]"] ;
104 -> 106 ;
107 [label="gini = 0.0\nsamples = 3\nvalue = [0, 0, 0 ..., 0, 0, 0]"] ;
103 -> 107 ;
108 [label="X[0] <= 9.964\ngini = 0.9998\nsamples = 6340\nvalue = [1, 1, 1 ..., 1, 1, 1]"] ;
0 -> 108 [labeldistance=2.5, labelangle=-45, headlabel="False"] ;
109 [label="X[1] <= 9.9796\ngini = 0.9998\nsamples = 6330\nvalue = [1, 1, 1 ..., 1, 1, 1]"] ;
108 -> 109 ;
110 [label="X[1] <= 0.1432\ngini = 0.9998\nsamples = 6320\nvalue = [1, 1, 1 ..., 1, 1, 1]"] ;
109 -> 110 ;
111 [label="X[0] <= 9.0818\ngini = 0.9642\nsamples = 33\nvalue = [0, 0, 0 ..., 0, 0, 0]"] ;
110 -> 111 ;
112 [label="X[1] <= 0.1267\ngini = 0.9617\nsamples = 28\nvalue = [0, 0, 0 ..., 0, 0, 0]"] ;
111 -> 112 ;
113 [label="X[5] <= 0.5\ngini = 0.9474\nsamples = 19\nvalue = [0, 0, 0 ..., 0, 0, 0]"] ;
112 -> 113 ;
114 [label="X[6] <= 0.5\ngini = 0.8571\nsamples = 7\nvalue = [0, 0, 0 ..., 0, 0, 0]"] ;
113 -> 114 ;
115 [label="X[3] <= 1.5\ngini = 0.8\nsamples = 5\nvalue = [0, 0, 0 ..., 0, 0, 0]"] ;
114 -> 115 ;
116 [label="gini = 0.0\nsamples = 1\nvalue = [0, 0, 0 ..., 0, 0, 0]"] ;
115 -> 116 ;
117 [label="X[4] <= 3.0\ngini = 0.75\nsamples = 4\nvalue = [0, 0, 0 ..., 0, 0, 0]"] ;
115 -> 117 ;
118 [label="gini = 0.0\nsamples = 1\nvalue = [0, 0, 0 ..., 0, 0, 0]"] ;
117 -> 118 ;
119 [label="X[0] <= 3.604\ngini = 0.6667\nsamples = 3\nvalue = [0, 0, 0 ..., 0, 0, 0]"] ;
117 -> 119 ;
120 [label="gini = 0.0\nsamples = 1\nvalue = [0, 0, 0 ..., 0, 0, 0]"] ;
119 -> 120 ;
121 [label="X[0] <= 6.5273\ngini = 0.5\nsamples = 2\nvalue = [0, 0, 0 ..., 0, 0, 0]"] ;
119 -> 121 ;
122 [label="gini = 0.0\nsamples = 1\nvalue = [0, 0, 0 ..., 0, 0, 0]"] ;
121 -> 122 ;
123 [label="gini = 0.0\nsamples = 1\nvalue = [0, 0, 0 ..., 0, 0, 0]"] ;
121 -> 123 ;
124 [label="X[3] <= 3.0\ngini = 0.5\nsamples = 2\nvalue = [0, 0, 0 ..., 0, 0, 0]"] ;
114 -> 124 ;
125 [label="gini = 0.0\nsamples = 1\nvalue = [0, 0, 0 ..., 0, 0, 0]"] ;
124 -> 125 ;
126 [label="gini = 0.0\nsamples = 1\nvalue = [0, 0, 0 ..., 0, 0, 0]"] ;
124 -> 126 ;
127 [label="X[2] <= 7.5\ngini = 0.9167\nsamples = 12\nvalue = [0, 0, 0 ..., 0, 0, 0]"] ;
113 -> 127 ;
128 [label="X[0] <= 8.1575\ngini = 0.5\nsamples = 2\nvalue = [0, 0, 0 ..., 0, 0, 0]"] ;
127 -> 128 ;
129 [label="gini = 0.0\nsamples = 1\nvalue = [0, 0, 0 ..., 0, 0, 0]"] ;
128 -> 129 ;
130 [label="gini = 0.0\nsamples = 1\nvalue = [0, 0, 0 ..., 0, 0, 0]"] ;
128 -> 130 ;
131 [label="X[3] <= 2.5\ngini = 0.9\nsamples = 10\nvalue = [0, 0, 0 ..., 0, 0, 0]"] ;
127 -> 131 ;
132 [label="X[2] <= 14.0\ngini = 0.6667\nsamples = 3\nvalue = [0, 0, 0 ..., 0, 0, 0]"] ;
131 -> 132 ;
133 [label="gini = 0.0\nsamples = 1\nvalue = [0, 0, 0 ..., 0, 0, 0]"] ;
132 -> 133 ;
134 [label="X[0] <= 4.1809\ngini = 0.5\nsamples = 2\nvalue = [0, 0, 0 ..., 0, 0, 0]"] ;
132 -> 134 ;
135 [label="gini = 0.0\nsamples = 1\nvalue = [0, 0, 0 ..., 0, 0, 0]"] ;
134 -> 135 ;
136 [label="gini = 0.0\nsamples = 1\nvalue = [0, 0, 0 ..., 0, 0, 0]"] ;
134 -> 136 ;
137 [label="X[0] <= 0.9622\ngini = 0.8571\nsamples = 7\nvalue = [0, 0, 0 ..., 0, 0, 0]"] ;
131 -> 137 ;
138 [label="gini = 0.0\nsamples = 1\nvalue = [0, 0, 0 ..., 0, 0, 0]"] ;
137 -> 138 ;
139 [label="X[7] <= 0.5\ngini = 0.8333\nsamples = 6\nvalue = [0, 0, 0 ..., 0, 0, 0]"] ;
137 -> 139 ;
140 [label="X[0] <= 3.8637\ngini = 0.6667\nsamples = 3\nvalue = [0, 0, 0 ..., 0, 0, 0]"] ;
139 -> 140 ;
141 [label="gini = 0.0\nsamples = 1\nvalue = [0, 0, 0 ..., 0, 0, 0]"] ;
140 -> 141 ;
142 [label="X[2] <= 20.0\ngini = 0.5\nsamples = 2\nvalue = [0, 0, 0 ..., 0, 0, 0]"] ;
140 -> 142 ;
143 [label="gini = 0.0\nsamples = 1\nvalue = [0, 0, 0 ..., 0, 0, 0]"] ;
142 -> 143 ;
144 [label="gini = 0.0\nsamples = 1\nvalue = [0, 0, 0 ..., 0, 0, 0]"] ;
142 -> 144 ;
145 [label="X[2] <= 14.5\ngini = 0.6667\nsamples = 3\nvalue = [0, 0, 0 ..., 0, 0, 0]"] ;
139 -> 145 ;
146 [label="gini = 0.0\nsamples = 1\nvalue = [0, 0, 0 ..., 0, 0, 0]"] ;
145 -> 146 ;
147 [label="X[4] <= 2.5\ngini = 0.5\nsamples = 2\nvalue = [0, 0, 0 ..., 0, 0, 0]"] ;
145 -> 147 ;
148 [label="gini = 0.0\nsamples = 1\nvalue = [0, 0, 0 ..., 0, 0, 0]"] ;
147 -> 148 ;
149 [label="gini = 0.0\nsamples = 1\nvalue = [0, 0, 0 ..., 0, 0, 0]"] ;
147 -> 149 ;
150 [label="X[0] <= 4.5265\ngini = 0.8642\nsamples = 9\nvalue = [0, 0, 0 ..., 0, 0, 0]"] ;
112 -> 150 ;
151 [label="X[7] <= 0.5\ngini = 0.75\nsamples = 4\nvalue = [0, 0, 0 ..., 0, 0, 0]"] ;
150 -> 151 ;
152 [label="X[6] <= 0.5\ngini = 0.6667\nsamples = 3\nvalue = [0, 0, 0 ..., 0, 0, 0]"] ;
151 -> 152 ;
153 [label="X[0] <= 4.3193\ngini = 0.5\nsamples = 2\nvalue = [0, 0, 0 ..., 0, 0, 0]"] ;
152 -> 153 ;
154 [label="gini = 0.0\nsamples = 1\nvalue = [0, 0, 0 ..., 0, 0, 0]"] ;
153 -> 154 ;
155 [label="gini = 0.0\nsamples = 1\nvalue = [0, 0, 0 ..., 0, 0, 0]"] ;
153 -> 155 ;
156 [label="gini = 0.0\nsamples = 1\nvalue = [0, 0, 0 ..., 0, 0, 0]"] ;
152 -> 156 ;
157 [label="gini = 0.0\nsamples = 1\nvalue = [0, 0, 0 ..., 0, 0, 0]"] ;
151 -> 157 ;
158 [label="X[0] <= 4.859\ngini = 0.72\nsamples = 5\nvalue = [0, 0, 0 ..., 0, 0, 0]"] ;
150 -> 158 ;
159 [label="gini = 0.0\nsamples = 2\nvalue = [0, 0, 0 ..., 0, 0, 0]"] ;
158 -> 159 ;
160 [label="X[7] <= 0.5\ngini = 0.6667\nsamples = 3\nvalue = [0, 0, 0 ..., 0, 0, 0]"] ;
158 -> 160 ;
161 [label="X[3] <= 2.5\ngini = 0.5\nsamples = 2\nvalue = [0, 0, 0 ..., 0, 0, 0]"] ;
160 -> 161 ;
162 [label="gini = 0.0\nsamples = 1\nvalue = [0, 0, 0 ..., 0, 0, 0]"] ;
161 -> 162 ;
163 [label="gini = 0.0\nsamples = 1\nvalue = [0, 0, 0 ..., 0, 0, 0]"] ;
161 -> 163 ;
164 [label="gini = 0.0\nsamples = 1\nvalue = [0, 0, 0 ..., 0, 0, 0]"] ;
160 -> 164 ;
165 [label="X[4] <= 6.0\ngini = 0.64\nsamples = 5\nvalue = [0, 0, 0 ..., 0, 0, 0]"] ;
111 -> 165 ;
166 [label="gini = 0.0\nsamples = 2\nvalue = [0, 0, 0 ..., 0, 0, 0]"] ;
165 -> 166 ;
167 [label="X[3] <= 4.0\ngini = 0.4444\nsamples = 3\nvalue = [0, 0, 0 ..., 0, 0, 0]"] ;
165 -> 167 ;
168 [label="gini = 0.0\nsamples = 2\nvalue = [0, 0, 0 ..., 0, 0, 0]"] ;
167 -> 168 ;
169 [label="gini = 0.0\nsamples = 1\nvalue = [0, 0, 0 ..., 0, 0, 0]"] ;
167 -> 169 ;
170 [label="X[0] <= 9.1845\ngini = 0.9998\nsamples = 6287\nvalue = [1, 1, 1 ..., 1, 1, 1]"] ;
110 -> 170 ;
171 [label="X[0] <= 0.0327\ngini = 0.9998\nsamples = 5779\nvalue = [1, 1, 1 ..., 1, 1, 1]"] ;
170 -> 171 ;
172 [label="X[0] <= 0.0279\ngini = 0.9112\nsamples = 13\nvalue = [0, 0, 0 ..., 0, 0, 0]"] ;
171 -> 172 ;
173 [label="X[5] <= 0.5\ngini = 0.9091\nsamples = 11\nvalue = [0, 0, 0 ..., 0, 0, 0]"] ;
172 -> 173 ;
174 [label="X[7] <= 0.5\ngini = 0.8\nsamples = 5\nvalue = [0, 0, 0 ..., 0, 0, 0]"] ;
173 -> 174 ;
175 [label="X[0] <= 0.0117\ngini = 0.6667\nsamples = 3\nvalue = [0, 0, 0 ..., 0, 0, 0]"] ;
174 -> 175 ;
176 [label="gini = 0.0\nsamples = 1\nvalue = [0, 0, 0 ..., 0, 0, 0]"] ;
175 -> 176 ;
177 [label="X[6] <= 0.5\ngini = 0.5\nsamples = 2\nvalue = [0, 0, 0 ..., 0, 0, 0]"] ;
175 -> 177 ;
178 [label="gini = 0.0\nsamples = 1\nvalue = [0, 0, 0 ..., 0, 0, 0]"] ;
177 -> 178 ;
179 [label="gini = 0.0\nsamples = 1\nvalue = [0, 0, 0 ..., 0, 0, 0]"] ;
177 -> 179 ;
180 [label="X[3] <= 5.5\ngini = 0.5\nsamples = 2\nvalue = [0, 0, 0 ..., 0, 0, 0]"] ;
174 -> 180 ;
181 [label="gini = 0.0\nsamples = 1\nvalue = [0, 0, 0 ..., 0, 0, 0]"] ;
180 -> 181 ;
182 [label="gini = 0.0\nsamples = 1\nvalue = [0, 0, 0 ..., 0, 0, 0]"] ;
180 -> 182 ;
183 [label="X[0] <= 0.0125\ngini = 0.8333\nsamples = 6\nvalue = [0, 0, 0 ..., 0, 0, 0]"] ;
173 -> 183 ;
184 [label="gini = 0.0\nsamples = 1\nvalue = [0, 0, 0 ..., 0, 0, 0]"] ;
183 -> 184 ;
185 [label="X[3] <= 0.5\ngini = 0.8\nsamples = 5\nvalue = [0, 0, 0 ..., 0, 0, 0]"] ;
183 -> 185 ;
186 [label="gini = 0.0\nsamples = 1\nvalue = [0, 0, 0 ..., 0, 0, 0]"] ;
185 -> 186 ;
187 [label="X[8] <= 0.5\ngini = 0.75\nsamples = 4\nvalue = [0, 0, 0 ..., 0, 0, 0]"] ;
185 -> 187 ;
188 [label="X[4] <= 6.0\ngini = 0.5\nsamples = 2\nvalue = [0, 0, 0 ..., 0, 0, 0]"] ;
187 -> 188 ;
189 [label="gini = 0.0\nsamples = 1\nvalue = [0, 0, 0 ..., 0, 0, 0]"] ;
188 -> 189 ;
190 [label="gini = 0.0\nsamples = 1\nvalue = [0, 0, 0 ..., 0, 0, 0]"] ;
188 -> 190 ;
191 [label="X[4] <= 7.5\ngini = 0.5\nsamples = 2\nvalue = [0, 0, 0 ..., 0, 0, 0]"] ;
187 -> 191 ;
192 [label="gini = 0.0\nsamples = 1\nvalue = [0, 0, 0 ..., 0, 0, 0]"] ;
191 -> 192 ;
193 [label="gini = 0.0\nsamples = 1\nvalue = [0, 0, 0 ..., 0, 0, 0]"] ;
191 -> 193 ;
194 [label="gini = 0.0\nsamples = 2\nvalue = [0, 0, 0 ..., 0, 0, 0]"] ;
172 -> 194 ;
195 [label="X[1] <= 2.9899\ngini = 0.9998\nsamples = 5766\nvalue = [1, 1, 1 ..., 1, 1, 1]"] ;
171 -> 195 ;
196 [label="X[1] <= 2.9857\ngini = 0.9993\nsamples = 1683\nvalue = [0, 0, 1 ..., 0, 0, 0]"] ;
195 -> 196 ;
197 [label="X[1] <= 2.7081\ngini = 0.9993\nsamples = 1678\nvalue = [0, 0, 1 ..., 0, 0, 0]"] ;
196 -> 197 ;
198 [label="X[1] <= 2.607\ngini = 0.9993\nsamples = 1522\nvalue = [0, 0, 1 ..., 0, 0, 0]"] ;
197 -> 198 ;
199 [label="X[1] <= 2.4602\ngini = 0.9992\nsamples = 1464\nvalue = [0, 0, 1 ..., 0, 0, 0]"] ;
198 -> 199 ;
200 [label="X[0] <= 0.4195\ngini = 0.9992\nsamples = 1386\nvalue = [0, 0, 1 ..., 0, 0, 0]"] ;
199 -> 200 ;
201 [label="X[1] <= 0.1995\ngini = 0.9858\nsamples = 81\nvalue = [0, 0, 0 ..., 0, 0, 0]"] ;
200 -> 201 ;
202 [label="X[1] <= 0.1646\ngini = 0.625\nsamples = 4\nvalue = [0, 0, 0 ..., 0, 0, 0]"] ;
201 -> 202 ;
203 [label="X[4] <= 5.0\ngini = 0.5\nsamples = 2\nvalue = [0, 0, 0 ..., 0, 0, 0]"] ;
202 -> 203 ;
204 [label="gini = 0.0\nsamples = 1\nvalue = [0, 0, 0 ..., 0, 0, 0]"] ;
203 -> 204 ;
205 [label="gini = 0.0\nsamples = 1\nvalue = [0, 0, 0 ..., 0, 0, 0]"] ;
203 -> 205 ;
206 [label="gini = 0.0\nsamples = 2\nvalue = [0, 0, 0 ..., 0, 0, 0]"] ;
202 -> 206 ;
207 [label="X[1] <= 2.2636\ngini = 0.9853\nsamples = 77\nvalue = [0, 0, 0 ..., 0, 0, 0]"] ;
201 -> 207 ;
208 [label="X[3] <= 0.5\ngini = 0.9848\nsamples = 73\nvalue = [0, 0, 0 ..., 0, 0, 0]"] ;
207 -> 208 ;
209 [label="X[0] <= 0.2663\ngini = 0.8994\nsamples = 13\nvalue = [0, 0, 0 ..., 0, 0, 0]"] ;
208 -> 209 ;
210 [label="X[4] <= 2.5\ngini = 0.875\nsamples = 8\nvalue = [0, 0, 0 ..., 0, 0, 0]"] ;
209 -> 210 ;
211 [label="gini = 0.0\nsamples = 1\nvalue = [0, 0, 0 ..., 0, 0, 0]"] ;
210 -> 211 ;
212 [label="X[4] <= 3.5\ngini = 0.8571\nsamples = 7\nvalue = [0, 0, 0 ..., 0, 0, 0]"] ;
210 -> 212 ;
213 [label="X[1] <= 0.7072\ngini = 0.5\nsamples = 2\nvalue = [0, 0, 0 ..., 0, 0, 0]"] ;
212 -> 213 ;
214 [label="gini = 0.0\nsamples = 1\nvalue = [0, 0, 0 ..., 0, 0, 0]"] ;
213 -> 214 ;
215 [label="gini = 0.0\nsamples = 1\nvalue = [0, 0, 0 ..., 0, 0, 0]"] ;
213 -> 215 ;
216 [label="X[0] <= 0.0786\ngini = 0.8\nsamples = 5\nvalue = [0, 0, 0 ..., 0, 0, 0]"] ;
212 -> 216 ;
217 [label="gini = 0.0\nsamples = 1\nvalue = [0, 0, 0 ..., 0, 0, 0]"] ;
216 -> 217 ;
218 [label="X[1] <= 0.7164\ngini = 0.75\nsamples = 4\nvalue = [0, 0, 0 ..., 0, 0, 0]"] ;
216 -> 218 ;
219 [label="gini = 0.0\nsamples = 1\nvalue = [0, 0, 0 ..., 0, 0, 0]"] ;
218 -> 219 ;
220 [label="X[4] <= 5.0\ngini = 0.6667\nsamples = 3\nvalue = [0, 0, 0 ..., 0, 0, 0]"] ;
218 -> 220 ;
221 [label="X[0] <= 0.1983\ngini = 0.5\nsamples = 2\nvalue = [0, 0, 0 ..., 0, 0, 0]"] ;
220 -> 221 ;
222 [label="gini = 0.0\nsamples = 1\nvalue = [0, 0, 0 ..., 0, 0, 0]"] ;
221 -> 222 ;
223 [label="gini = 0.0\nsamples = 1\nvalue = [0, 0, 0 ..., 0, 0, 0]"] ;
221 -> 223 ;
224 [label="gini = 0.0\nsamples = 1\nvalue = [0, 0, 0 ..., 0, 0, 0]"] ;
220 -> 224 ;
225 [label="X[1] <= 1.8686\ngini = 0.64\nsamples = 5\nvalue = [0, 0, 0 ..., 0, 0, 0]"] ;
209 -> 225 ;
226 [label="X[2] <= 12.5\ngini = 0.4444\nsamples = 3\nvalue = [0, 0, 0 ..., 0, 0, 0]"] ;
225 -> 226 ;
227 [label="gini = 0.0\nsamples = 2\nvalue = [0, 0, 0 ..., 0, 0, 0]"] ;
226 -> 227 ;
228 [label="gini = 0.0\nsamples = 1\nvalue = [0, 0, 0 ..., 0, 0, 0]"] ;
226 -> 228 ;
229 [label="gini = 0.0\nsamples = 2\nvalue = [0, 0, 0 ..., 0, 0, 0]"] ;
225 -> 229 ;
230 [label="X[1] <= 0.4442\ngini = 0.9822\nsamples = 60\nvalue = [0, 0, 0 ..., 0, 0, 0]"] ;
208 -> 230 ;
231 [label="X[3] <= 5.5\ngini = 0.88\nsamples = 10\nvalue = [0, 0, 0 ..., 0, 0, 0]"] ;
230 -> 231 ;
232 [label="X[6] <= 0.5\ngini = 0.875\nsamples = 8\nvalue = [0, 0, 0 ..., 0, 0, 0]"] ;
231 -> 232 ;
233 [label="X[3] <= 2.5\ngini = 0.8333\nsamples = 6\nvalue = [0, 0, 0 ..., 0, 0, 0]"] ;
232 -> 233 ;
234 [label="X[4] <= 3.0\ngini = 0.5\nsamples = 2\nvalue = [0, 0, 0 ..., 0, 0, 0]"] ;
233 -> 234 ;
235 [label="gini = 0.0\nsamples = 1\nvalue = [0, 0, 0 ..., 0, 0, 0]"] ;
234 -> 235 ;
236 [label="gini = 0.0\nsamples = 1\nvalue = [0, 0, 0 ..., 0, 0, 0]"] ;
234 -> 236 ;
237 [label="X[2] <= 13.5\ngini = 0.75\nsamples = 4\nvalue = [0, 0, 0 ..., 0, 0, 0]"] ;
233 -> 237 ;
238 [label="gini = 0.0\nsamples = 1\nvalue = [0, 0, 0 ..., 0, 0, 0]"] ;
237 -> 238 ;
239 [label="X[2] <= 16.5\ngini = 0.6667\nsamples = 3\nvalue = [0, 0, 0 ..., 0, 0, 0]"] ;
237 -> 239 ;
240 [label="gini = 0.0\nsamples = 1\nvalue = [0, 0, 0 ..., 0, 0, 0]"] ;
239 -> 240 ;
241 [label="X[4] <= 5.5\ngini = 0.5\nsamples = 2\nvalue = [0, 0, 0 ..., 0, 0, 0]"] ;
239 -> 241 ;
242 [label="gini = 0.0\nsamples = 1\nvalue = [0, 0, 0 ..., 0, 0, 0]"] ;
241 -> 242 ;
243 [label="gini = 0.0\nsamples = 1\nvalue = [0, 0, 0 ..., 0, 0, 0]"] ;
241 -> 243 ;
244 [label="X[1] <= 0.3447\ngini = 0.5\nsamples = 2\nvalue = [0, 0, 0 ..., 0, 0, 0]"] ;
232 -> 244 ;
245 [label="gini = 0.0\nsamples = 1\nvalue = [0, 0, 0 ..., 0, 0, 0]"] ;
244 -> 245 ;
246 [label="gini = 0.0\nsamples = 1\nvalue = [0, 0, 0 ..., 0, 0, 0]"] ;
244 -> 246 ;
247 [label="gini = 0.0\nsamples = 2\nvalue = [0, 0, 0 ..., 0, 0, 0]"] ;
231 -> 247 ;
248 [label="X[0] <= 0.1216\ngini = 0.9792\nsamples = 50\nvalue = [0, 0, 0 ..., 0, 0, 0]"] ;
230 -> 248 ;
249 [label="X[0] <= 0.1049\ngini = 0.8926\nsamples = 11\nvalue = [0, 0, 0 ..., 0, 0, 0]"] ;
248 -> 249 ;
250 [label="X[1] <= 0.747\ngini = 0.875\nsamples = 8\nvalue = [0, 0, 0 ..., 0, 0, 0]"] ;
249 -> 250 ;
251 [label="gini = 0.0\nsamples = 1\nvalue = [0, 0, 0 ..., 0, 0, 0]"] ;
250 -> 251 ;
252 [label="X[3] <= 1.5\ngini = 0.8571\nsamples = 7\nvalue = [0, 0, 0 ..., 0, 0, 0]"] ;
250 -> 252 ;
253 [label="gini = 0.0\nsamples = 1\nvalue = [0, 0, 0 ..., 0, 0, 0]"] ;
252 -> 253 ;
254 [label="X[6] <= 0.5\ngini = 0.8333\nsamples = 6\nvalue = [0, 0, 0 ..., 0, 0, 0]"] ;
252 -> 254 ;
255 [label="X[8] <= 0.5\ngini = 0.75\nsamples = 4\nvalue = [0, 0, 0 ..., 0, 0, 0]"] ;
254 -> 255 ;
256 [label="X[4] <= 4.5\ngini = 0.5\nsamples = 2\nvalue = [0, 0, 0 ..., 0, 0, 0]"] ;
255 -> 256 ;
257 [label="gini = 0.0\nsamples = 1\nvalue = [0, 0, 0 ..., 0, 0, 0]"] ;
256 -> 257 ;
258 [label="gini = 0.0\nsamples = 1\nvalue = [0, 0, 0 ..., 0, 0, 0]"] ;
256 -> 258 ;
259 [label="X[3] <= 4.0\ngini = 0.5\nsamples = 2\nvalue = [0, 0, 0 ..., 0, 0, 0]"] ;
255 -> 259 ;
260 [label="gini = 0.0\nsamples = 1\nvalue = [0, 0, 0 ..., 0, 0, 0]"] ;
259 -> 260 ;
261 [label="gini = 0.0\nsamples = 1\nvalue = [0, 0, 0 ..., 0, 0, 0]"] ;
259 -> 261 ;
262 [label="X[3] <= 3.5\ngini = 0.5\nsamples = 2\nvalue = [0, 0, 0 ..., 0, 0, 0]"] ;
254 -> 262 ;
263 [label="gini = 0.0\nsamples = 1\nvalue = [0, 0, 0 ..., 0, 0, 0]"] ;
262 -> 263 ;
264 [label="gini = 0.0\nsamples = 1\nvalue = [0, 0, 0 ..., 0, 0, 0]"] ;
262 -> 264 ;
265 [label="X[6] <= 0.5\ngini = 0.4444\nsamples = 3\nvalue = [0, 0, 0 ..., 0, 0, 0]"] ;
249 -> 265 ;
266 [label="gini = 0.0\nsamples = 1\nvalue = [0, 0, 0 ..., 0, 0, 0]"] ;
265 -> 266 ;
267 [label="gini = 0.0\nsamples = 2\nvalue = [0, 0, 0 ..., 0, 0, 0]"] ;
265 -> 267 ;
268 [label="X[8] <= 0.5\ngini = 0.9744\nsamples = 39\nvalue = [0, 0, 0 ..., 0, 0, 0]"] ;
248 -> 268 ;
269 [label="X[4] <= 1.5\ngini = 0.9677\nsamples = 31\nvalue = [0, 0, 0 ..., 0, 0, 0]"] ;
268 -> 269 ;
270 [label="X[7] <= 0.5\ngini = 0.8571\nsamples = 7\nvalue = [0, 0, 0 ..., 0, 0, 0]"] ;
269 -> 270 ;
271 [label="X[1] <= 0.4998\ngini = 0.6667\nsamples = 3\nvalue = [0, 0, 0 ..., 0, 0, 0]"] ;
270 -> 271 ;
272 [label="gini = 0.0\nsamples = 1\nvalue = [0, 0, 0 ..., 0, 0, 0]"] ;
271 -> 272 ;
273 [label="X[1] <= 1.1773\ngini = 0.5\nsamples = 2\nvalue = [0, 0, 0 ..., 0, 0, 0]"] ;
271 -> 273 ;
274 [label="gini = 0.0\nsamples = 1\nvalue = [0, 0, 0 ..., 0, 0, 0]"] ;
273 -> 274 ;
275 [label="gini = 0.0\nsamples = 1\nvalue = [0, 0, 0 ..., 0, 0, 0]"] ;
273 -> 275 ;
276 [label="X[2] <= 6.0\ngini = 0.75\nsamples = 4\nvalue = [0, 0, 0 ..., 0, 0, 0]"] ;
270 -> 276 ;
277 [label="gini = 0.0\nsamples = 1\nvalue = [0, 0, 0 ..., 0, 0, 0]"] ;
276 -> 277 ;
278 [label="X[2] <= 12.5\ngini = 0.6667\nsamples = 3\nvalue = [0, 0, 0 ..., 0, 0, 0]"] ;
276 -> 278 ;
279 [label="gini = 0.0\nsamples = 1\nvalue = [0, 0, 0 ..., 0, 0, 0]"] ;
278 -> 279 ;
280 [label="X[3] <= 5.5\ngini = 0.5\nsamples = 2\nvalue = [0, 0, 0 ..., 0, 0, 0]"] ;
278 -> 280 ;
281 [label="gini = 0.0\nsamples = 1\nvalue = [0, 0, 0 ..., 0, 0, 0]"] ;
280 -> 281 ;
282 [label="gini = 0.0\nsamples = 1\nvalue = [0, 0, 0 ..., 0, 0, 0]"] ;
280 -> 282 ;
283 [label="X[7] <= 0.5\ngini = 0.9583\nsamples = 24\nvalue = [0, 0, 0 ..., 0, 0, 0]"] ;
269 -> 283 ;
284 [label="X[5] <= 0.5\ngini = 0.9167\nsamples = 12\nvalue = [0, 0, 0 ..., 0, 0, 0]"] ;
283 -> 284 ;
285 [label="X[6] <= 0.5\ngini = 0.9\nsamples = 10\nvalue = [0, 0, 0 ..., 0, 0, 0]"] ;
284 -> 285 ;
286 [label="X[4] <= 2.5\ngini = 0.8333\nsamples = 6\nvalue = [0, 0, 0 ..., 0, 0, 0]"] ;
285 -> 286 ;
287 [label="gini = 0.0\nsamples = 1\nvalue = [0, 0, 0 ..., 0, 0, 0]"] ;
286 -> 287 ;
288 [label="X[3] <= 1.5\ngini = 0.8\nsamples = 5\nvalue = [0, 0, 0 ..., 0, 0, 0]"] ;
286 -> 288 ;
289 [label="X[1] <= 0.9722\ngini = 0.6667\nsamples = 3\nvalue = [0, 0, 0 ..., 0, 0, 0]"] ;
288 -> 289 ;
290 [label="gini = 0.0\nsamples = 1\nvalue = [0, 0, 0 ..., 0, 0, 0]"] ;
289 -> 290 ;
291 [label="X[1] <= 1.7176\ngini = 0.5\nsamples = 2\nvalue = [0, 0, 0 ..., 0, 0, 0]"] ;
289 -> 291 ;
292 [label="gini = 0.0\nsamples = 1\nvalue = [0, 0, 0 ..., 0, 0, 0]"] ;
291 -> 292 ;
293 [label="gini = 0.0\nsamples = 1\nvalue = [0, 0, 0 ..., 0, 0, 0]"] ;
291 -> 293 ;
294 [label="X[1] <= 1.5507\ngini = 0.5\nsamples = 2\nvalue = [0, 0, 0 ..., 0, 0, 0]"] ;
288 -> 294 ;
295 [label="gini = 0.0\nsamples = 1\nvalue = [0, 0, 0 ..., 0, 0, 0]"] ;
294 -> 295 ;
296 [label="gini = 0.0\nsamples = 1\nvalue = [0, 0, 0 ..., 0, 0, 0]"] ;
294 -> 296 ;
297 [label="X[1] <= 0.7884\ngini = 0.75\nsamples = 4\nvalue = [0, 0, 0 ..., 0, 0, 0]"] ;
285 -> 297 ;
298 [label="gini = 0.0\nsamples = 1\nvalue = [0, 0, 0 ..., 0, 0, 0]"] ;
297 -> 298 ;
299 [label="X[4] <= 9.5\ngini = 0.6667\nsamples = 3\nvalue = [0, 0, 0 ..., 0, 0, 0]"] ;
297 -> 299 ;
300 [label="gini = 0.0\nsamples = 1\nvalue = [0, 0, 0 ..., 0, 0, 0]"] ;
299 -> 300 ;
301 [label="X[3] <= 3.0\ngini = 0.5\nsamples = 2\nvalue = [0, 0, 0 ..., 0, 0, 0]"] ;
299 -> 301 ;
302 [label="gini = 0.0\nsamples = 1\nvalue = [0, 0, 0 ..., 0, 0, 0]"] ;
301 -> 302 ;
303 [label="gini = 0.0\nsamples = 1\nvalue = [0, 0, 0 ..., 0, 0, 0]"] ;
301 -> 303 ;
304 [label="X[3] <= 2.0\ngini = 0.5\nsamples = 2\nvalue = [0, 0, 0 ..., 0, 0, 0]"] ;
284 -> 304 ;
305 [label="gini = 0.0\nsamples = 1\nvalue = [0, 0, 0 ..., 0, 0, 0]"] ;
304 -> 305 ;
306 [label="gini = 0.0\nsamples = 1\nvalue = [0, 0, 0 ..., 0, 0, 0]"] ;
304 -> 306 ;
307 [label="X[0] <= 0.1357\ngini = 0.9167\nsamples = 12\nvalue = [0, 0, 0 ..., 0, 0, 0]"] ;
283 -> 307 ;
308 [label="gini = 0.0\nsamples = 1\nvalue = [0, 0, 0 ..., 0, 0, 0]"] ;
307 -> 308 ;
309 [label="X[3] <= 5.5\ngini = 0.9091\nsamples = 11\nvalue = [0, 0, 0 ..., 0, 0, 0]"] ;
307 -> 309 ;
310 [label="X[6] <= 0.5\ngini = 0.75\nsamples = 4\nvalue = [0, 0, 0 ..., 0, 0, 0]"] ;
309 -> 310 ;
311 [label="gini = 0.0\nsamples = 1\nvalue = [0, 0, 0 ..., 0, 0, 0]"] ;
310 -> 311 ;
312 [label="X[2] <= 3.5\ngini = 0.6667\nsamples = 3\nvalue = [0, 0, 0 ..., 0, 0, 0]"] ;
310 -> 312 ;
313 [label="gini = 0.0\nsamples = 1\nvalue = [0, 0, 0 ..., 0, 0, 0]"] ;
312 -> 313 ;
314 [label="X[0] <= 0.3026\ngini = 0.5\nsamples = 2\nvalue = [0, 0, 0 ..., 0, 0, 0]"] ;
312 -> 314 ;
315 [label="gini = 0.0\nsamples = 1\nvalue = [0, 0, 0 ..., 0, 0, 0]"] ;
314 -> 315 ;
316 [label="gini = 0.0\nsamples = 1\nvalue = [0, 0, 0 ..., 0, 0, 0]"] ;
314 -> 316 ;
317 [label="X[0] <= 0.157\ngini = 0.8571\nsamples = 7\nvalue = [0, 0, 0 ..., 0, 0, 0]"] ;
309 -> 317 ;
318 [label="gini = 0.0\nsamples = 1\nvalue = [0, 0, 0 ..., 0, 0, 0]"] ;
317 -> 318 ;
319 [label="X[5] <= 0.5\ngini = 0.8333\nsamples = 6\nvalue = [0, 0, 0 ..., 0, 0, 0]"] ;
317 -> 319 ;
320 [label="X[0] <= 0.2944\ngini = 0.75\nsamples = 4\nvalue = [0, 0, 0 ..., 0, 0, 0]"] ;
319 -> 320 ;
321 [label="gini = 0.0\nsamples = 1\nvalue = [0, 0, 0 ..., 0, 0, 0]"] ;
320 -> 321 ;
322 [label="X[0] <= 0.3176\ngini = 0.6667\nsamples = 3\nvalue = [0, 0, 0 ..., 0, 0, 0]"] ;
320 -> 322 ;
323 [label="gini = 0.0\nsamples = 1\nvalue = [0, 0, 0 ..., 0, 0, 0]"] ;
322 -> 323 ;
324 [label="X[6] <= 0.5\ngini = 0.5\nsamples = 2\nvalue = [0, 0, 0 ..., 0, 0, 0]"] ;
322 -> 324 ;
325 [label="gini = 0.0\nsamples = 1\nvalue = [0, 0, 0 ..., 0, 0, 0]"] ;
324 -> 325 ;
326 [label="gini = 0.0\nsamples = 1\nvalue = [0, 0, 0 ..., 0, 0, 0]"] ;
324 -> 326 ;
327 [label="X[0] <= 0.2334\ngini = 0.5\nsamples = 2\nvalue = [0, 0, 0 ..., 0, 0, 0]"] ;
319 -> 327 ;
328 [label="gini = 0.0\nsamples = 1\nvalue = [0, 0, 0 ..., 0, 0, 0]"] ;
327 -> 328 ;
329 [label="gini = 0.0\nsamples = 1\nvalue = [0, 0, 0 ..., 0, 0, 0]"] ;
327 -> 329 ;
330 [label="X[2] <= 0.5\ngini = 0.875\nsamples = 8\nvalue = [0, 0, 0 ..., 0, 0, 0]"] ;
268 -> 330 ;
331 [label="X[7] <= 0.5\ngini = 0.6667\nsamples = 3\nvalue = [0, 0, 0 ..., 0, 0, 0]"] ;
330 -> 331 ;
332 [label="gini = 0.0\nsamples = 1\nvalue = [0, 0, 0 ..., 0, 0, 0]"] ;
331 -> 332 ;
333 [label="X[1] <= 1.2801\ngini = 0.5\nsamples = 2\nvalue = [0, 0, 0 ..., 0, 0, 0]"] ;
331 -> 333 ;
334 [label="gini = 0.0\nsamples = 1\nvalue = [0, 0, 0 ..., 0, 0, 0]"] ;
333 -> 334 ;
335 [label="gini = 0.0\nsamples = 1\nvalue = [0, 0, 0 ..., 0, 0, 0]"] ;
333 -> 335 ;
336 [label="X[0] <= 0.2721\ngini = 0.8\nsamples = 5\nvalue = [0, 0, 0 ..., 0, 0, 0]"] ;
330 -> 336 ;
337 [label="gini = 0.0\nsamples = 1\nvalue = [0, 0, 0 ..., 0, 0, 0]"] ;
336 -> 337 ;
338 [label="X[3] <= 1.5\ngini = 0.75\nsamples = 4\nvalue = [0, 0, 0 ..., 0, 0, 0]"] ;
336 -> 338 ;
339 [label="gini = 0.0\nsamples = 1\nvalue = [0, 0, 0 ..., 0, 0, 0]"] ;
338 -> 339 ;
340 [label="X[0] <= 0.3239\ngini = 0.6667\nsamples = 3\nvalue = [0, 0, 0 ..., 0, 0, 0]"] ;
338 -> 340 ;
341 [label="gini = 0.0\nsamples = 1\nvalue = [0, 0, 0 ..., 0, 0, 0]"] ;
340 -> 341 ;
342 [label="X[3] <= 4.5\ngini = 0.5\nsamples = 2\nvalue = [0, 0, 0 ..., 0, 0, 0]"] ;
340 -> 342 ;
343 [label="gini = 0.0\nsamples = 1\nvalue = [0, 0, 0 ..., 0, 0, 0]"] ;
342 -> 343 ;
344 [label="gini = 0.0\nsamples = 1\nvalue = [0, 0, 0 ..., 0, 0, 0]"] ;
342 -> 344 ;
345 [label="X[0] <= 0.3028\ngini = 0.625\nsamples = 4\nvalue = [0, 0, 0 ..., 0, 0, 0]"] ;
207 -> 345 ;
346 [label="gini = 0.0\nsamples = 2\nvalue = [0, 0, 0 ..., 0, 0, 0]"] ;
345 -> 346 ;
347 [label="X[0] <= 0.3723\ngini = 0.5\nsamples = 2\nvalue = [0, 0, 0 ..., 0, 0, 0]"] ;
345 -> 347 ;
348 [label="gini = 0.0\nsamples = 1\nvalue = [0, 0, 0 ..., 0, 0, 0]"] ;
347 -> 348 ;
349 [label="gini = 0.0\nsamples = 1\nvalue = [0, 0, 0 ..., 0, 0, 0]"] ;
347 -> 349 ;
350 [label="X[1] <= 2.3756\ngini = 0.9992\nsamples = 1305\nvalue = [0, 0, 1 ..., 0, 0, 0]"] ;
200 -> 350 ;
351 [label="X[0] <= 8.6993\ngini = 0.9991\nsamples = 1258\nvalue = [0, 0, 1 ..., 0, 0, 0]"] ;
350 -> 351 ;
352 [label="X[0] <= 0.5009\ngini = 0.9991\nsamples = 1200\nvalue = [0, 0, 0 ..., 0, 0, 0]"] ;
351 -> 352 ;
353 [label="X[0] <= 0.48\ngini = 0.9244\nsamples = 15\nvalue = [0, 0, 0 ..., 0, 0, 0]"] ;
352 -> 353 ;
354 [label="X[6] <= 0.5\ngini = 0.9091\nsamples = 11\nvalue = [0, 0, 0 ..., 0, 0, 0]"] ;
353 -> 354 ;
355 [label="X[4] <= 1.5\ngini = 0.8889\nsamples = 9\nvalue = [0, 0, 0 ..., 0, 0, 0]"] ;
354 -> 355 ;
356 [label="gini = 0.0\nsamples = 1\nvalue = [0, 0, 0 ..., 0, 0, 0]"] ;
355 -> 356 ;
357 [label="X[7] <= 0.5\ngini = 0.875\nsamples = 8\nvalue = [0, 0, 0 ..., 0, 0, 0]"] ;
355 -> 357 ;
358 [label="X[3] <= 1.0\ngini = 0.75\nsamples = 4\nvalue = [0, 0, 0 ..., 0, 0, 0]"] ;
357 -> 358 ;
359 [label="X[0] <= 0.4276\ngini = 0.5\nsamples = 2\nvalue = [0, 0, 0 ..., 0, 0, 0]"] ;
358 -> 359 ;
360 [label="gini = 0.0\nsamples = 1\nvalue = [0, 0, 0 ..., 0, 0, 0]"] ;
359 -> 360 ;
361 [label="gini = 0.0\nsamples = 1\nvalue = [0, 0, 0 ..., 0, 0, 0]"] ;
359 -> 361 ;
362 [label="X[2] <= 18.0\ngini = 0.5\nsamples = 2\nvalue = [0, 0, 0 ..., 0, 0, 0]"] ;
358 -> 362 ;
363 [label="gini = 0.0\nsamples = 1\nvalue = [0, 0, 0 ..., 0, 0, 0]"] ;
362 -> 363 ;
364 [label="gini = 0.0\nsamples = 1\nvalue = [0, 0, 0 ..., 0, 0, 0]"] ;
362 -> 364 ;
365 [label="X[1] <= 0.9757\ngini = 0.75\nsamples = 4\nvalue = [0, 0, 0 ..., 0, 0, 0]"] ;
357 -> 365 ;
366 [label="gini = 0.0\nsamples = 1\nvalue = [0, 0, 0 ..., 0, 0, 0]"] ;
365 -> 366 ;
367 [label="X[2] <= 11.0\ngini = 0.6667\nsamples = 3\nvalue = [0, 0, 0 ..., 0, 0, 0]"] ;
365 -> 367 ;
368 [label="gini = 0.0\nsamples = 1\nvalue = [0, 0, 0 ..., 0, 0, 0]"] ;
367 -> 368 ;
369 [label="X[3] <= 5.5\ngini = 0.5\nsamples = 2\nvalue = [0, 0, 0 ..., 0, 0, 0]"] ;
367 -> 369 ;
370 [label="gini = 0.0\nsamples = 1\nvalue = [0, 0, 0 ..., 0, 0, 0]"] ;
369 -> 370 ;
371 [label="gini = 0.0\nsamples = 1\nvalue = [0, 0, 0 ..., 0, 0, 0]"] ;
369 -> 371 ;
372 [label="X[3] <= 1.0\ngini = 0.5\nsamples = 2\nvalue = [0, 0, 0 ..., 0, 0, 0]"] ;
354 -> 372 ;
373 [label="gini = 0.0\nsamples = 1\nvalue = [0, 0, 0 ..., 0, 0, 0]"] ;
372 -> 373 ;
374 [label="gini = 0.0\nsamples = 1\nvalue = [0, 0, 0 ..., 0, 0, 0]"] ;
372 -> 374 ;
375 [label="X[1] <= 1.2612\ngini = 0.625\nsamples = 4\nvalue = [0, 0, 0 ..., 0, 0, 0]"] ;
353 -> 375 ;
376 [label="X[1] <= 0.6504\ngini = 0.5\nsamples = 2\nvalue = [0, 0, 0 ..., 0, 0, 0]"] ;
375 -> 376 ;
377 [label="gini = 0.0\nsamples = 1\nvalue = [0, 0, 0 ..., 0, 0, 0]"] ;
376 -> 377 ;
378 [label="gini = 0.0\nsamples = 1\nvalue = [0, 0, 0 ..., 0, 0, 0]"] ;
376 -> 378 ;
379 [label="gini = 0.0\nsamples = 2\nvalue = [0, 0, 0 ..., 0, 0, 0]"] ;
375 -> 379 ;
380 [label="X[0] <= 1.0596\ngini = 0.9991\nsamples = 1185\nvalue = [0, 0, 0 ..., 0, 0, 0]"] ;
352 -> 380 ;
381 [label="X[0] <= 1.0237\ngini = 0.9844\nsamples = 73\nvalue = [0, 0, 0 ..., 0, 0, 0]"] ;
380 -> 381 ;
382 [label="X[1] <= 0.8652\ngini = 0.9837\nsamples = 67\nvalue = [0, 0, 0 ..., 0, 0, 0]"] ;
381 -> 382 ;
383 [label="X[1] <= 0.8216\ngini = 0.945\nsamples = 20\nvalue = [0, 0, 0 ..., 0, 0, 0]"] ;
382 -> 383 ;
384 [label="X[4] <= 1.5\ngini = 0.9444\nsamples = 18\nvalue = [0, 0, 0 ..., 0, 0, 0]"] ;
383 -> 384 ;
385 [label="gini = 0.0\nsamples = 1\nvalue = [0, 0, 0 ..., 0, 0, 0]"] ;
384 -> 385 ;
386 [label="X[7] <= 0.5\ngini = 0.9412\nsamples = 17\nvalue = [0, 0, 0 ..., 0, 0, 0]"] ;
384 -> 386 ;
387 [label="X[8] <= 0.5\ngini = 0.9167\nsamples = 12\nvalue = [0, 0, 0 ..., 0, 0, 0]"] ;
386 -> 387 ;
388 [label="X[3] <= 0.5\ngini = 0.9\nsamples = 10\nvalue = [0, 0, 0 ..., 0, 0, 0]"] ;
387 -> 388 ;
389 [label="X[1] <= 0.3266\ngini = 0.5\nsamples = 2\nvalue = [0, 0, 0 ..., 0, 0, 0]"] ;
388 -> 389 ;
390 [label="gini = 0.0\nsamples = 1\nvalue = [0, 0, 0 ..., 0, 0, 0]"] ;
389 -> 390 ;
391 [label="gini = 0.0\nsamples = 1\nvalue = [0, 0, 0 ..., 0, 0, 0]"] ;
389 -> 391 ;
392 [label="X[2] <= 3.0\ngini = 0.875\nsamples = 8\nvalue = [0, 0, 0 ..., 0, 0, 0]"] ;
388 -> 392 ;
393 [label="gini = 0.0\nsamples = 1\nvalue = [0, 0, 0 ..., 0, 0, 0]"] ;
392 -> 393 ;
394 [label="X[5] <= 0.5\ngini = 0.8571\nsamples = 7\nvalue = [0, 0, 0 ..., 0, 0, 0]"] ;
392 -> 394 ;
395 [label="X[0] <= 0.6799\ngini = 0.75\nsamples = 4\nvalue = [0, 0, 0 ..., 0, 0, 0]"] ;
394 -> 395 ;
396 [label="gini = 0.0\nsamples = 1\nvalue = [0, 0, 0 ..., 0, 0, 0]"] ;
395 -> 396 ;
397 [label="X[1] <= 0.4717\ngini = 0.6667\nsamples = 3\nvalue = [0, 0, 0 ..., 0, 0, 0]"] ;
395 -> 397 ;
398 [label="gini = 0.0\nsamples = 1\nvalue = [0, 0, 0 ..., 0, 0, 0]"] ;
397 -> 398 ;
399 [label="X[3] <= 1.5\ngini = 0.5\nsamples = 2\nvalue = [0, 0, 0 ..., 0, 0, 0]"] ;
397 -> 399 ;
400 [label="gini = 0.0\nsamples = 1\nvalue = [0, 0, 0 ..., 0, 0, 0]"] ;
399 -> 400 ;
401 [label="gini = 0.0\nsamples = 1\nvalue = [0, 0, 0 ..., 0, 0, 0]"] ;
399 -> 401 ;
402 [label="X[4] <= 4.0\ngini = 0.6667\nsamples = 3\nvalue = [0, 0, 0 ..., 0, 0, 0]"] ;
394 -> 402 ;
403 [label="gini = 0.0\nsamples = 1\nvalue = [0, 0, 0 ..., 0, 0, 0]"] ;
402 -> 403 ;
404 [label="X[1] <= 0.5206\ngini = 0.5\nsamples = 2\nvalue = [0, 0, 0 ..., 0, 0, 0]"] ;
402 -> 404 ;
405 [label="gini = 0.0\nsamples = 1\nvalue = [0, 0, 0 ..., 0, 0, 0]"] ;
404 -> 405 ;
406 [label="gini = 0.0\nsamples = 1\nvalue = [0, 0, 0 ..., 0, 0, 0]"] ;
404 -> 406 ;
407 [label="X[0] <= 0.6836\ngini = 0.5\nsamples = 2\nvalue = [0, 0, 0 ..., 0, 0, 0]"] ;
387 -> 407 ;
408 [label="gini = 0.0\nsamples = 1\nvalue = [0, 0, 0 ..., 0, 0, 0]"] ;
407 -> 408 ;
409 [label="gini = 0.0\nsamples = 1\nvalue = [0, 0, 0 ..., 0, 0, 0]"] ;
407 -> 409 ;
410 [label="X[3] <= 5.5\ngini = 0.8\nsamples = 5\nvalue = [0, 0, 0 ..., 0, 0, 0]"] ;
386 -> 410 ;
411 [label="gini = 0.0\nsamples = 1\nvalue = [0, 0, 0 ..., 0, 0, 0]"] ;
410 -> 411 ;
412 [label="X[1] <= 0.2414\ngini = 0.75\nsamples = 4\nvalue = [0, 0, 0 ..., 0, 0, 0]"] ;
410 -> 412 ;
413 [label="gini = 0.0\nsamples = 1\nvalue = [0, 0, 0 ..., 0, 0, 0]"] ;
412 -> 413 ;
414 [label="X[2] <= 7.0\ngini = 0.6667\nsamples = 3\nvalue = [0, 0, 0 ..., 0, 0, 0]"] ;
412 -> 414 ;
415 [label="gini = 0.0\nsamples = 1\nvalue = [0, 0, 0 ..., 0, 0, 0]"] ;
414 -> 415 ;
416 [label="X[1] <= 0.2784\ngini = 0.5\nsamples = 2\nvalue = [0, 0, 0 ..., 0, 0, 0]"] ;
414 -> 416 ;
417 [label="gini = 0.0\nsamples = 1\nvalue = [0, 0, 0 ..., 0, 0, 0]"] ;
416 -> 417 ;
418 [label="gini = 0.0\nsamples = 1\nvalue = [0, 0, 0 ..., 0, 0, 0]"] ;
416 -> 418 ;
419 [label="gini = 0.0\nsamples = 2\nvalue = [0, 0, 0 ..., 0, 0, 0]"] ;
383 -> 419 ;
420 [label="X[1] <= 1.5836\ngini = 0.9769\nsamples = 47\nvalue = [0, 0, 0 ..., 0, 0, 0]"] ;
382 -> 420 ;
421 [label="X[1] <= 1.5575\ngini = 0.9244\nsamples = 15\nvalue = [0, 0, 0 ..., 0, 0, 0]"] ;
420 -> 421 ;
422 [label="X[7] <= 0.5\ngini = 0.9231\nsamples = 13\nvalue = [0, 0, 0 ..., 0, 0, 0]"] ;
421 -> 422 ;
423 [label="X[0] <= 0.5223\ngini = 0.9\nsamples = 10\nvalue = [0, 0, 0 ..., 0, 0, 0]"] ;
422 -> 423 ;
424 [label="gini = 0.0\nsamples = 1\nvalue = [0, 0, 0 ..., 0, 0, 0]"] ;
423 -> 424 ;
425 [label="X[8] <= 0.5\ngini = 0.8889\nsamples = 9\nvalue = [0, 0, 0 ..., 0, 0, 0]"] ;
423 -> 425 ;
426 [label="X[4] <= 2.5\ngini = 0.8571\nsamples = 7\nvalue = [0, 0, 0 ..., 0, 0, 0]"] ;
425 -> 426 ;
427 [label="gini = 0.0\nsamples = 1\nvalue = [0, 0, 0 ..., 0, 0, 0]"] ;
426 -> 427 ;
428 [label="X[1] <= 1.0769\ngini = 0.8333\nsamples = 6\nvalue = [0, 0, 0 ..., 0, 0, 0]"] ;
426 -> 428 ;
429 [label="gini = 0.0\nsamples = 1\nvalue = [0, 0, 0 ..., 0, 0, 0]"] ;
428 -> 429 ;
430 [label="X[3] <= 1.0\ngini = 0.8\nsamples = 5\nvalue = [0, 0, 0 ..., 0, 0, 0]"] ;
428 -> 430 ;
431 [label="gini = 0.0\nsamples = 1\nvalue = [0, 0, 0 ..., 0, 0, 0]"] ;
430 -> 431 ;
432 [label="X[6] <= 0.5\ngini = 0.75\nsamples = 4\nvalue = [0, 0, 0 ..., 0, 0, 0]"] ;
430 -> 432 ;
433 [label="X[5] <= 0.5\ngini = 0.6667\nsamples = 3\nvalue = [0, 0, 0 ..., 0, 0, 0]"] ;
432 -> 433 ;
434 [label="X[1] <= 1.3261\ngini = 0.5\nsamples = 2\nvalue = [0, 0, 0 ..., 0, 0, 0]"] ;
433 -> 434 ;
435 [label="gini = 0.0\nsamples = 1\nvalue = [0, 0, 0 ..., 0, 0, 0]"] ;
434 -> 435 ;
436 [label="gini = 0.0\nsamples = 1\nvalue = [0, 0, 0 ..., 0, 0, 0]"] ;
434 -> 436 ;
437 [label="gini = 0.0\nsamples = 1\nvalue = [0, 0, 0 ..., 0, 0, 0]"] ;
433 -> 437 ;
438 [label="gini = 0.0\nsamples = 1\nvalue = [0, 0, 0 ..., 0, 0, 0]"] ;
432 -> 438 ;
439 [label="X[0] <= 0.8275\ngini = 0.5\nsamples = 2\nvalue = [0, 0, 0 ..., 0, 0, 0]"] ;
425 -> 439 ;
440 [label="gini = 0.0\nsamples = 1\nvalue = [0, 0, 0 ..., 0, 0, 0]"] ;
439 -> 440 ;
441 [label="gini = 0.0\nsamples = 1\nvalue = [0, 0, 0 ..., 0, 0, 0]"] ;
439 -> 441 ;
442 [label="X[6] <= 0.5\ngini = 0.6667\nsamples = 3\nvalue = [0, 0, 0 ..., 0, 0, 0]"] ;
422 -> 442 ;
443 [label="gini = 0.0\nsamples = 1\nvalue = [0, 0, 0 ..., 0, 0, 0]"] ;
442 -> 443 ;
444 [label="X[0] <= 0.855\ngini = 0.5\nsamples = 2\nvalue = [0, 0, 0 ..., 0, 0, 0]"] ;
442 -> 444 ;
445 [label="gini = 0.0\nsamples = 1\nvalue = [0, 0, 0 ..., 0, 0, 0]"] ;
444 -> 445 ;
446 [label="gini = 0.0\nsamples = 1\nvalue = [0, 0, 0 ..., 0, 0, 0]"] ;
444 -> 446 ;
447 [label="gini = 0.0\nsamples = 2\nvalue = [0, 0, 0 ..., 0, 0, 0]"] ;
421 -> 447 ;
448 [label="X[1] <= 1.7818\ngini = 0.9668\nsamples = 32\nvalue = [0, 0, 0 ..., 0, 0, 0]"] ;
420 -> 448 ;
449 [label="X[1] <= 1.7398\ngini = 0.88\nsamples = 10\nvalue = [0, 0, 0 ..., 0, 0, 0]"] ;
448 -> 449 ;
450 [label="X[6] <= 0.5\ngini = 0.875\nsamples = 8\nvalue = [0, 0, 0 ..., 0, 0, 0]"] ;
449 -> 450 ;
451 [label="X[7] <= 0.5\ngini = 0.8571\nsamples = 7\nvalue = [0, 0, 0 ..., 0, 0, 0]"] ;
450 -> 451 ;
452 [label="X[1] <= 1.5932\ngini = 0.6667\nsamples = 3\nvalue = [0, 0, 0 ..., 0, 0, 0]"] ;
451 -> 452 ;
453 [label="gini = 0.0\nsamples = 1\nvalue = [0, 0, 0 ..., 0, 0, 0]"] ;
452 -> 453 ;
454 [label="X[1] <= 1.6437\ngini = 0.5\nsamples = 2\nvalue = [0, 0, 0 ..., 0, 0, 0]"] ;
452 -> 454 ;
455 [label="gini = 0.0\nsamples = 1\nvalue = [0, 0, 0 ..., 0, 0, 0]"] ;
454 -> 455 ;
456 [label="gini = 0.0\nsamples = 1\nvalue = [0, 0, 0 ..., 0, 0, 0]"] ;
454 -> 456 ;
457 [label="X[5] <= 0.5\ngini = 0.75\nsamples = 4\nvalue = [0, 0, 0 ..., 0, 0, 0]"] ;
451 -> 457 ;
458 [label="gini = 0.0\nsamples = 1\nvalue = [0, 0, 0 ..., 0, 0, 0]"] ;
457 -> 458 ;
459 [label="X[1] <= 1.603\ngini = 0.6667\nsamples = 3\nvalue = [0, 0, 0 ..., 0, 0, 0]"] ;
457 -> 459 ;
460 [label="gini = 0.0\nsamples = 1\nvalue = [0, 0, 0 ..., 0, 0, 0]"] ;
459 -> 460 ;
461 [label="X[3] <= 5.5\ngini = 0.5\nsamples = 2\nvalue = [0, 0, 0 ..., 0, 0, 0]"] ;
459 -> 461 ;
462 [label="gini = 0.0\nsamples = 1\nvalue = [0, 0, 0 ..., 0, 0, 0]"] ;
461 -> 462 ;
463 [label="gini = 0.0\nsamples = 1\nvalue = [0, 0, 0 ..., 0, 0, 0]"] ;
461 -> 463 ;
464 [label="gini = 0.0\nsamples = 1\nvalue = [0, 0, 0 ..., 0, 0, 0]"] ;
450 -> 464 ;
465 [label="gini = 0.0\nsamples = 2\nvalue = [0, 0, 0 ..., 0, 0, 0]"] ;
449 -> 465 ;
466 [label="X[2] <= 0.5\ngini = 0.9545\nsamples = 22\nvalue = [0, 0, 0 ..., 0, 0, 0]"] ;
448 -> 466 ;
467 [label="gini = 0.0\nsamples = 1\nvalue = [0, 0, 0 ..., 0, 0, 0]"] ;
466 -> 467 ;
468 [label="X[0] <= 0.5339\ngini = 0.9524\nsamples = 21\nvalue = [0, 0, 0 ..., 0, 0, 0]"] ;
466 -> 468 ;
469 [label="gini = 0.0\nsamples = 1\nvalue = [0, 0, 0 ..., 0, 0, 0]"] ;
468 -> 469 ;
470 [label="X[5] <= 0.5\ngini = 0.95\nsamples = 20\nvalue = [0, 0, 0 ..., 0, 0, 0]"] ;
468 -> 470 ;
471 [label="X[3] <= 1.0\ngini = 0.9167\nsamples = 12\nvalue = [0, 0, 0 ..., 0, 0, 0]"] ;
470 -> 471 ;
472 [label="X[0] <= 0.6134\ngini = 0.75\nsamples = 4\nvalue = [0, 0, 0 ..., 0, 0, 0]"] ;
471 -> 472 ;
473 [label="gini = 0.0\nsamples = 1\nvalue = [0, 0, 0 ..., 0, 0, 0]"] ;
472 -> 473 ;
474 [label="X[0] <= 0.709\ngini = 0.6667\nsamples = 3\nvalue = [0, 0, 0 ..., 0, 0, 0]"] ;
472 -> 474 ;
475 [label="gini = 0.0\nsamples = 1\nvalue = [0, 0, 0 ..., 0, 0, 0]"] ;
474 -> 475 ;
476 [label="X[1] <= 2.025\ngini = 0.5\nsamples = 2\nvalue = [0, 0, 0 ..., 0, 0, 0]"] ;
474 -> 476 ;
477 [label="gini = 0.0\nsamples = 1\nvalue = [0, 0, 0 ..., 0, 0, 0]"] ;
476 -> 477 ;
478 [label="gini = 0.0\nsamples = 1\nvalue = [0, 0, 0 ..., 0, 0, 0]"] ;
476 -> 478 ;
479 [label="X[2] <= 2.0\ngini = 0.875\nsamples = 8\nvalue = [0, 0, 0 ..., 0, 0, 0]"] ;
471 -> 479 ;
480 [label="X[0] <= 0.6901\ngini = 0.5\nsamples = 2\nvalue = [0, 0, 0 ..., 0, 0, 0]"] ;
479 -> 480 ;
481 [label="gini = 0.0\nsamples = 1\nvalue = [0, 0, 0 ..., 0, 0, 0]"] ;
480 -> 481 ;
482 [label="gini = 0.0\nsamples = 1\nvalue = [0, 0, 0 ..., 0, 0, 0]"] ;
480 -> 482 ;
483 [label="X[1] <= 1.9128\ngini = 0.8333\nsamples = 6\nvalue = [0, 0, 0 ..., 0, 0, 0]"] ;
479 -> 483 ;
484 [label="gini = 0.0\nsamples = 1\nvalue = [0, 0, 0 ..., 0, 0, 0]"] ;
483 -> 484 ;
485 [label="X[4] <= 2.5\ngini = 0.8\nsamples = 5\nvalue = [0, 0, 0 ..., 0, 0, 0]"] ;
483 -> 485 ;
486 [label="gini = 0.0\nsamples = 1\nvalue = [0, 0, 0 ..., 0, 0, 0]"] ;
485 -> 486 ;
487 [label="X[0] <= 0.751\ngini = 0.75\nsamples = 4\nvalue = [0, 0, 0 ..., 0, 0, 0]"] ;
485 -> 487 ;
488 [label="gini = 0.0\nsamples = 1\nvalue = [0, 0, 0 ..., 0, 0, 0]"] ;
487 -> 488 ;
489 [label="X[1] <= 2.0562\ngini = 0.6667\nsamples = 3\nvalue = [0, 0, 0 ..., 0, 0, 0]"] ;
487 -> 489 ;
490 [label="gini = 0.0\nsamples = 1\nvalue = [0, 0, 0 ..., 0, 0, 0]"] ;
489 -> 490 ;
491 [label="X[8] <= 0.5\ngini = 0.5\nsamples = 2\nvalue = [0, 0, 0 ..., 0, 0, 0]"] ;
489 -> 491 ;
492 [label="gini = 0.0\nsamples = 1\nvalue = [0, 0, 0 ..., 0, 0, 0]"] ;
491 -> 492 ;
493 [label="gini = 0.0\nsamples = 1\nvalue = [0, 0, 0 ..., 0, 0, 0]"] ;
491 -> 493 ;
494 [label="X[2] <= 7.5\ngini = 0.875\nsamples = 8\nvalue = [0, 0, 0 ..., 0, 0, 0]"] ;
470 -> 494 ;
495 [label="gini = 0.0\nsamples = 1\nvalue = [0, 0, 0 ..., 0, 0, 0]"] ;
494 -> 495 ;
496 [label="X[8] <= 0.5\ngini = 0.8571\nsamples = 7\nvalue = [0, 0, 0 ..., 0, 0, 0]"] ;
494 -> 496 ;
497 [label="X[3] <= 0.5\ngini = 0.8333\nsamples = 6\nvalue = [0, 0, 0 ..., 0, 0, 0]"] ;
496 -> 497 ;
498 [label="X[1] <= 2.2585\ngini = 0.5\nsamples = 2\nvalue = [0, 0, 0 ..., 0, 0, 0]"] ;
497 -> 498 ;
499 [label="gini = 0.0\nsamples = 1\nvalue = [0, 0, 0 ..., 0, 0, 0]"] ;
498 -> 499 ;
500 [label="gini = 0.0\nsamples = 1\nvalue = [0, 0, 0 ..., 0, 0, 0]"] ;
498 -> 500 ;
501 [label="X[3] <= 2.0\ngini = 0.75\nsamples = 4\nvalue = [0, 0, 0 ..., 0, 0, 0]"] ;
497 -> 501 ;
502 [label="gini = 0.0\nsamples = 1\nvalue = [0, 0, 0 ..., 0, 0, 0]"] ;
501 -> 502 ;
503 [label="X[0] <= 0.6579\ngini = 0.6667\nsamples = 3\nvalue = [0, 0, 0 ..., 0, 0, 0]"] ;
501 -> 503 ;
504 [label="gini = 0.0\nsamples = 1\nvalue = [0, 0, 0 ..., 0, 0, 0]"] ;
503 -> 504 ;
505 [label="X[4] <= 5.5\ngini = 0.5\nsamples = 2\nvalue = [0, 0, 0 ..., 0, 0, 0]"] ;
503 -> 505 ;
506 [label="gini = 0.0\nsamples = 1\nvalue = [0, 0, 0 ..., 0, 0, 0]"] ;
505 -> 506 ;
507 [label="gini = 0.0\nsamples = 1\nvalue = [0, 0, 0 ..., 0, 0, 0]"] ;
505 -> 507 ;
508 [label="gini = 0.0\nsamples = 1\nvalue = [0, 0, 0 ..., 0, 0, 0]"] ;
496 -> 508 ;
509 [label="X[1] <= 0.682\ngini = 0.7222\nsamples = 6\nvalue = [0, 0, 0 ..., 0, 0, 0]"] ;
381 -> 509 ;
510 [label="gini = 0.0\nsamples = 2\nvalue = [0, 0, 0 ..., 0, 0, 0]"] ;
509 -> 510 ;
511 [label="X[1] <= 1.0573\ngini = 0.625\nsamples = 4\nvalue = [0, 0, 0 ..., 0, 0, 0]"] ;
509 -> 511 ;
512 [label="gini = 0.0\nsamples = 2\nvalue = [0, 0, 0 ..., 0, 0, 0]"] ;
511 -> 512 ;
513 [label="X[3] <= 3.0\ngini = 0.5\nsamples = 2\nvalue = [0, 0, 0 ..., 0, 0, 0]"] ;
511 -> 513 ;
514 [label="gini = 0.0\nsamples = 1\nvalue = [0, 0, 0 ..., 0, 0, 0]"] ;
513 -> 514 ;
515 [label="gini = 0.0\nsamples = 1\nvalue = [0, 0, 0 ..., 0, 0, 0]"] ;
513 -> 515 ;
516 [label="X[0] <= 2.0643\ngini = 0.999\nsamples = 1112\nvalue = [0, 0, 0 ..., 0, 0, 0]"] ;
380 -> 516 ;
517 [label="X[1] <= 2.0711\ngini = 0.9919\nsamples = 139\nvalue = [0, 0, 0 ..., 0, 0, 0]"] ;
516 -> 517 ;
518 [label="X[0] <= 1.8389\ngini = 0.9905\nsamples = 116\nvalue = [0, 0, 0 ..., 0, 0, 0]"] ;
517 -> 518 ;
519 [label="X[0] <= 1.7717\ngini = 0.9881\nsamples = 90\nvalue = [0, 0, 0 ..., 0, 0, 0]"] ;
518 -> 519 ;
520 [label="X[1] <= 1.1565\ngini = 0.9874\nsamples = 83\nvalue = [0, 0, 0 ..., 0, 0, 0]"] ;
519 -> 520 ;
521 [label="X[7] <= 0.5\ngini = 0.9804\nsamples = 51\nvalue = [0, 0, 0 ..., 0, 0, 0]"] ;
520 -> 521 ;
522 [label="X[0] <= 1.0962\ngini = 0.9688\nsamples = 32\nvalue = [0, 0, 0 ..., 0, 0, 0]"] ;
521 -> 522 ;
523 [label="gini = 0.0\nsamples = 1\nvalue = [0, 0, 0 ..., 0, 0, 0]"] ;
522 -> 523 ;
524 [label="X[2] <= 0.5\ngini = 0.9677\nsamples = 31\nvalue = [0, 0, 0 ..., 0, 0, 0]"] ;
522 -> 524 ;
525 [label="gini = 0.0\nsamples = 1\nvalue = [0, 0, 0 ..., 0, 0, 0]"] ;
524 -> 525 ;
526 [label="X[1] <= 0.1676\ngini = 0.9667\nsamples = 30\nvalue = [0, 0, 0 ..., 0, 0, 0]"] ;
524 -> 526 ;
527 [label="gini = 0.0\nsamples = 1\nvalue = [0, 0, 0 ..., 0, 0, 0]"] ;
526 -> 527 ;
528 [label="X[0] <= 1.0999\ngini = 0.9655\nsamples = 29\nvalue = [0, 0, 0 ..., 0, 0, 0]"] ;
526 -> 528 ;
529 [label="gini = 0.0\nsamples = 1\nvalue = [0, 0, 0 ..., 0, 0, 0]"] ;
528 -> 529 ;
530 [label="X[1] <= 0.2144\ngini = 0.9643\nsamples = 28\nvalue = [0, 0, 0 ..., 0, 0, 0]"] ;
528 -> 530 ;
531 [label="gini = 0.0\nsamples = 1\nvalue = [0, 0, 0 ..., 0, 0, 0]"] ;
530 -> 531 ;
532 [label="X[0] <= 1.1151\ngini = 0.963\nsamples = 27\nvalue = [0, 0, 0 ..., 0, 0, 0]"] ;
530 -> 532 ;
533 [label="gini = 0.0\nsamples = 1\nvalue = [0, 0, 0 ..., 0, 0, 0]"] ;
532 -> 533 ;
534 [label="X[2] <= 2.0\ngini = 0.9615\nsamples = 26\nvalue = [0, 0, 0 ..., 0, 0, 0]"] ;
532 -> 534 ;
535 [label="gini = 0.0\nsamples = 1\nvalue = [0, 0, 0 ..., 0, 0, 0]"] ;
534 -> 535 ;
536 [label="X[1] <= 0.2573\ngini = 0.96\nsamples = 25\nvalue = [0, 0, 0 ..., 0, 0, 0]"] ;
534 -> 536 ;
537 [label="gini = 0.0\nsamples = 1\nvalue = [0, 0, 0 ..., 0, 0, 0]"] ;
536 -> 537 ;
538 [label="X[5] <= 0.5\ngini = 0.9583\nsamples = 24\nvalue = [0, 0, 0 ..., 0, 0, 0]"] ;
536 -> 538 ;
539 [label="X[1] <= 0.3725\ngini = 0.9091\nsamples = 11\nvalue = [0, 0, 0 ..., 0, 0, 0]"] ;
538 -> 539 ;
540 [label="gini = 0.0\nsamples = 1\nvalue = [0, 0, 0 ..., 0, 0, 0]"] ;
539 -> 540 ;
541 [label="X[6] <= 0.5\ngini = 0.9\nsamples = 10\nvalue = [0, 0, 0 ..., 0, 0, 0]"] ;
539 -> 541 ;
542 [label="X[0] <= 1.1624\ngini = 0.8\nsamples = 5\nvalue = [0, 0, 0 ..., 0, 0, 0]"] ;
541 -> 542 ;
543 [label="gini = 0.0\nsamples = 1\nvalue = [0, 0, 0 ..., 0, 0, 0]"] ;
542 -> 543 ;
544 [label="X[2] <= 13.0\ngini = 0.75\nsamples = 4\nvalue = [0, 0, 0 ..., 0, 0, 0]"] ;
542 -> 544 ;
545 [label="gini = 0.0\nsamples = 1\nvalue = [0, 0, 0 ..., 0, 0, 0]"] ;
544 -> 545 ;
546 [label="X[4] <= 6.0\ngini = 0.6667\nsamples = 3\nvalue = [0, 0, 0 ..., 0, 0, 0]"] ;
544 -> 546 ;
547 [label="X[2] <= 19.0\ngini = 0.5\nsamples = 2\nvalue = [0, 0, 0 ..., 0, 0, 0]"] ;
546 -> 547 ;
548 [label="gini = 0.0\nsamples = 1\nvalue = [0, 0, 0 ..., 0, 0, 0]"] ;
547 -> 548 ;
549 [label="gini = 0.0\nsamples = 1\nvalue = [0, 0, 0 ..., 0, 0, 0]"] ;
547 -> 549 ;
550 [label="gini = 0.0\nsamples = 1\nvalue = [0, 0, 0 ..., 0, 0, 0]"] ;
546 -> 550 ;
551 [label="X[0] <= 1.1851\ngini = 0.8\nsamples = 5\nvalue = [0, 0, 0 ..., 0, 0, 0]"] ;
541 -> 551 ;
552 [label="gini = 0.0\nsamples = 1\nvalue = [0, 0, 0 ..., 0, 0, 0]"] ;
551 -> 552 ;
553 [label="X[2] <= 3.5\ngini = 0.75\nsamples = 4\nvalue = [0, 0, 0 ..., 0, 0, 0]"] ;
551 -> 553 ;
554 [label="X[0] <= 1.2738\ngini = 0.5\nsamples = 2\nvalue = [0, 0, 0 ..., 0, 0, 0]"] ;
553 -> 554 ;
555 [label="gini = 0.0\nsamples = 1\nvalue = [0, 0, 0 ..., 0, 0, 0]"] ;
554 -> 555 ;
556 [label="gini = 0.0\nsamples = 1\nvalue = [0, 0, 0 ..., 0, 0, 0]"] ;
554 -> 556 ;
557 [label="X[4] <= 2.5\ngini = 0.5\nsamples = 2\nvalue = [0, 0, 0 ..., 0, 0, 0]"] ;
553 -> 557 ;
558 [label="gini = 0.0\nsamples = 1\nvalue = [0, 0, 0 ..., 0, 0, 0]"] ;
557 -> 558 ;
559 [label="gini = 0.0\nsamples = 1\nvalue = [0, 0, 0 ..., 0, 0, 0]"] ;
557 -> 559 ;
560 [label="X[2] <= 6.5\ngini = 0.9231\nsamples = 13\nvalue = [0, 0, 0 ..., 0, 0, 0]"] ;
538 -> 560 ;
561 [label="X[8] <= 0.5\ngini = 0.6667\nsamples = 3\nvalue = [0, 0, 0 ..., 0, 0, 0]"] ;
560 -> 561 ;
562 [label="X[4] <= 3.5\ngini = 0.5\nsamples = 2\nvalue = [0, 0, 0 ..., 0, 0, 0]"] ;
561 -> 562 ;
563 [label="gini = 0.0\nsamples = 1\nvalue = [0, 0, 0 ..., 0, 0, 0]"] ;
562 -> 563 ;
564 [label="gini = 0.0\nsamples = 1\nvalue = [0, 0, 0 ..., 0, 0, 0]"] ;
562 -> 564 ;
565 [label="gini = 0.0\nsamples = 1\nvalue = [0, 0, 0 ..., 0, 0, 0]"] ;
561 -> 565 ;
566 [label="X[2] <= 8.0\ngini = 0.9\nsamples = 10\nvalue = [0, 0, 0 ..., 0, 0, 0]"] ;
560 -> 566 ;
567 [label="gini = 0.0\nsamples = 1\nvalue = [0, 0, 0 ..., 0, 0, 0]"] ;
566 -> 567 ;
568 [label="X[2] <= 13.0\ngini = 0.8889\nsamples = 9\nvalue = [0, 0, 0 ..., 0, 0, 0]"] ;
566 -> 568 ;
569 [label="gini = 0.0\nsamples = 1\nvalue = [0, 0, 0 ..., 0, 0, 0]"] ;
568 -> 569 ;
570 [label="X[4] <= 1.5\ngini = 0.875\nsamples = 8\nvalue = [0, 0, 0 ..., 0, 0, 0]"] ;
568 -> 570 ;
571 [label="gini = 0.0\nsamples = 1\nvalue = [0, 0, 0 ..., 0, 0, 0]"] ;
570 -> 571 ;
572 [label="X[2] <= 17.5\ngini = 0.8571\nsamples = 7\nvalue = [0, 0, 0 ..., 0, 0, 0]"] ;
570 -> 572 ;
573 [label="gini = 0.0\nsamples = 1\nvalue = [0, 0, 0 ..., 0, 0, 0]"] ;
572 -> 573 ;
574 [label="X[4] <= 2.5\ngini = 0.8333\nsamples = 6\nvalue = [0, 0, 0 ..., 0, 0, 0]"] ;
572 -> 574 ;
575 [label="gini = 0.0\nsamples = 1\nvalue = [0, 0, 0 ..., 0, 0, 0]"] ;
574 -> 575 ;
576 [label="X[4] <= 3.5\ngini = 0.8\nsamples = 5\nvalue = [0, 0, 0 ..., 0, 0, 0]"] ;
574 -> 576 ;
577 [label="gini = 0.0\nsamples = 1\nvalue = [0, 0, 0 ..., 0, 0, 0]"] ;
576 -> 577 ;
578 [label="X[4] <= 7.5\ngini = 0.75\nsamples = 4\nvalue = [0, 0, 0 ..., 0, 0, 0]"] ;
576 -> 578 ;
579 [label="X[3] <= 2.5\ngini = 0.5\nsamples = 2\nvalue = [0, 0, 0 ..., 0, 0, 0]"] ;
578 -> 579 ;
580 [label="gini = 0.0\nsamples = 1\nvalue = [0, 0, 0 ..., 0, 0, 0]"] ;
579 -> 580 ;
581 [label="gini = 0.0\nsamples = 1\nvalue = [0, 0, 0 ..., 0, 0, 0]"] ;
579 -> 581 ;
582 [label="X[4] <= 11.5\ngini = 0.5\nsamples = 2\nvalue = [0, 0, 0 ..., 0, 0, 0]"] ;
578 -> 582 ;
583 [label="gini = 0.0\nsamples = 1\nvalue = [0, 0, 0 ..., 0, 0, 0]"] ;
582 -> 583 ;
584 [label="gini = 0.0\nsamples = 1\nvalue = [0, 0, 0 ..., 0, 0, 0]"] ;
582 -> 584 ;
585 [label="X[2] <= 2.0\ngini = 0.9474\nsamples = 19\nvalue = [0, 0, 0 ..., 0, 0, 0]"] ;
521 -> 585 ;
586 [label="X[0] <= 1.4133\ngini = 0.5\nsamples = 2\nvalue = [0, 0, 0 ..., 0, 0, 0]"] ;
585 -> 586 ;
587 [label="gini = 0.0\nsamples = 1\nvalue = [0, 0, 0 ..., 0, 0, 0]"] ;
586 -> 587 ;
588 [label="gini = 0.0\nsamples = 1\nvalue = [0, 0, 0 ..., 0, 0, 0]"] ;
586 -> 588 ;
589 [label="X[6] <= 0.5\ngini = 0.9412\nsamples = 17\nvalue = [0, 0, 0 ..., 0, 0, 0]"] ;
585 -> 589 ;
590 [label="X[0] <= 1.0792\ngini = 0.9333\nsamples = 15\nvalue = [0, 0, 0 ..., 0, 0, 0]"] ;
589 -> 590 ;
591 [label="gini = 0.0\nsamples = 1\nvalue = [0, 0, 0 ..., 0, 0, 0]"] ;
590 -> 591 ;
592 [label="X[4] <= 3.0\ngini = 0.9286\nsamples = 14\nvalue = [0, 0, 0 ..., 0, 0, 0]"] ;
590 -> 592 ;
593 [label="gini = 0.0\nsamples = 1\nvalue = [0, 0, 0 ..., 0, 0, 0]"] ;
592 -> 593 ;
594 [label="X[1] <= 0.1632\ngini = 0.9231\nsamples = 13\nvalue = [0, 0, 0 ..., 0, 0, 0]"] ;
592 -> 594 ;
595 [label="gini = 0.0\nsamples = 1\nvalue = [0, 0, 0 ..., 0, 0, 0]"] ;
594 -> 595 ;
596 [label="X[4] <= 4.5\ngini = 0.9167\nsamples = 12\nvalue = [0, 0, 0 ..., 0, 0, 0]"] ;
594 -> 596 ;
597 [label="X[1] <= 0.5454\ngini = 0.75\nsamples = 4\nvalue = [0, 0, 0 ..., 0, 0, 0]"] ;
596 -> 597 ;
598 [label="gini = 0.0\nsamples = 1\nvalue = [0, 0, 0 ..., 0, 0, 0]"] ;
597 -> 598 ;
599 [label="X[1] <= 0.9903\ngini = 0.6667\nsamples = 3\nvalue = [0, 0, 0 ..., 0, 0, 0]"] ;
597 -> 599 ;
600 [label="gini = 0.0\nsamples = 1\nvalue = [0, 0, 0 ..., 0, 0, 0]"] ;
599 -> 600 ;
601 [label="X[5] <= 0.5\ngini = 0.5\nsamples = 2\nvalue = [0, 0, 0 ..., 0, 0, 0]"] ;
599 -> 601 ;
602 [label="gini = 0.0\nsamples = 1\nvalue = [0, 0, 0 ..., 0, 0, 0]"] ;
601 -> 602 ;
603 [label="gini = 0.0\nsamples = 1\nvalue = [0, 0, 0 ..., 0, 0, 0]"] ;
601 -> 603 ;
604 [label="X[3] <= 5.5\ngini = 0.875\nsamples = 8\nvalue = [0, 0, 0 ..., 0, 0, 0]"] ;
596 -> 604 ;
605 [label="X[0] <= 1.3515\ngini = 0.6667\nsamples = 3\nvalue = [0, 0, 0 ..., 0, 0, 0]"] ;
604 -> 605 ;
606 [label="gini = 0.0\nsamples = 1\nvalue = [0, 0, 0 ..., 0, 0, 0]"] ;
605 -> 606 ;
607 [label="X[1] <= 0.5228\ngini = 0.5\nsamples = 2\nvalue = [0, 0, 0 ..., 0, 0, 0]"] ;
605 -> 607 ;
608 [label="gini = 0.0\nsamples = 1\nvalue = [0, 0, 0 ..., 0, 0, 0]"] ;
607 -> 608 ;
609 [label="gini = 0.0\nsamples = 1\nvalue = [0, 0, 0 ..., 0, 0, 0]"] ;
607 -> 609 ;
610 [label="X[2] <= 12.5\ngini = 0.8\nsamples = 5\nvalue = [0, 0, 0 ..., 0, 0, 0]"] ;
604 -> 610 ;
611 [label="gini = 0.0\nsamples = 1\nvalue = [0, 0, 0 ..., 0, 0, 0]"] ;
610 -> 611 ;
612 [label="X[2] <= 13.5\ngini = 0.75\nsamples = 4\nvalue = [0, 0, 0 ..., 0, 0, 0]"] ;
610 -> 612 ;
613 [label="X[4] <= 8.5\ngini = 0.5\nsamples = 2\nvalue = [0, 0, 0 ..., 0, 0, 0]"] ;
612 -> 613 ;
614 [label="gini = 0.0\nsamples = 1\nvalue = [0, 0, 0 ..., 0, 0, 0]"] ;
613 -> 614 ;
615 [label="gini = 0.0\nsamples = 1\nvalue = [0, 0, 0 ..., 0, 0, 0]"] ;
613 -> 615 ;
616 [label="X[0] <= 1.3698\ngini = 0.5\nsamples = 2\nvalue = [0, 0, 0 ..., 0, 0, 0]"] ;
612 -> 616 ;
617 [label="gini = 0.0\nsamples = 1\nvalue = [0, 0, 0 ..., 0, 0, 0]"] ;
616 -> 617 ;
618 [label="gini = 0.0\nsamples = 1\nvalue = [0, 0, 0 ..., 0, 0, 0]"] ;
616 -> 618 ;
619 [label="X[2] <= 3.5\ngini = 0.5\nsamples = 2\nvalue = [0, 0, 0 ..., 0, 0, 0]"] ;
589 -> 619 ;
620 [label="gini = 0.0\nsamples = 1\nvalue = [0, 0, 0 ..., 0, 0, 0]"] ;
619 -> 620 ;
621 [label="gini = 0.0\nsamples = 1\nvalue = [0, 0, 0 ..., 0, 0, 0]"] ;
619 -> 621 ;
622 [label="X[1] <= 1.175\ngini = 0.9648\nsamples = 32\nvalue = [0, 0, 0 ..., 0, 0, 0]"] ;
520 -> 622 ;
623 [label="gini = 0.0\nsamples = 2\nvalue = [0, 0, 0 ..., 0, 0, 0]"] ;
622 -> 623 ;
624 [label="X[1] <= 1.4022\ngini = 0.9644\nsamples = 30\nvalue = [0, 0, 0 ..., 0, 0, 0]"] ;
622 -> 624 ;
625 [label="X[1] <= 1.3189\ngini = 0.8438\nsamples = 8\nvalue = [0, 0, 0 ..., 0, 0, 0]"] ;
624 -> 625 ;
626 [label="X[3] <= 0.5\ngini = 0.8333\nsamples = 6\nvalue = [0, 0, 0 ..., 0, 0, 0]"] ;
625 -> 626 ;
627 [label="X[2] <= 4.5\ngini = 0.6667\nsamples = 3\nvalue = [0, 0, 0 ..., 0, 0, 0]"] ;
626 -> 627 ;
628 [label="gini = 0.0\nsamples = 1\nvalue = [0, 0, 0 ..., 0, 0, 0]"] ;
627 -> 628 ;
629 [label="X[2] <= 11.5\ngini = 0.5\nsamples = 2\nvalue = [0, 0, 0 ..., 0, 0, 0]"] ;
627 -> 629 ;
630 [label="gini = 0.0\nsamples = 1\nvalue = [0, 0, 0 ..., 0, 0, 0]"] ;
629 -> 630 ;
631 [label="gini = 0.0\nsamples = 1\nvalue = [0, 0, 0 ..., 0, 0, 0]"] ;
629 -> 631 ;
632 [label="X[2] <= 4.5\ngini = 0.6667\nsamples = 3\nvalue = [0, 0, 0 ..., 0, 0, 0]"] ;
626 -> 632 ;
633 [label="gini = 0.0\nsamples = 1\nvalue = [0, 0, 0 ..., 0, 0, 0]"] ;
632 -> 633 ;
634 [label="X[5] <= 0.5\ngini = 0.5\nsamples = 2\nvalue = [0, 0, 0 ..., 0, 0, 0]"] ;
632 -> 634 ;
635 [label="gini = 0.0\nsamples = 1\nvalue = [0, 0, 0 ..., 0, 0, 0]"] ;
634 -> 635 ;
636 [label="gini = 0.0\nsamples = 1\nvalue = [0, 0, 0 ..., 0, 0, 0]"] ;
634 -> 636 ;
637 [label="gini = 0.0\nsamples = 2\nvalue = [0, 0, 0 ..., 0, 0, 0]"] ;
625 -> 637 ;
638 [label="X[3] <= 0.5\ngini = 0.9545\nsamples = 22\nvalue = [0, 0, 0 ..., 0, 0, 0]"] ;
624 -> 638 ;
639 [label="X[6] <= 0.5\ngini = 0.75\nsamples = 4\nvalue = [0, 0, 0 ..., 0, 0, 0]"] ;
638 -> 639 ;
640 [label="X[0] <= 1.2349\ngini = 0.6667\nsamples = 3\nvalue = [0, 0, 0 ..., 0, 0, 0]"] ;
639 -> 640 ;
641 [label="gini = 0.0\nsamples = 1\nvalue = [0, 0, 0 ..., 0, 0, 0]"] ;
640 -> 641 ;
642 [label="X[5] <= 0.5\ngini = 0.5\nsamples = 2\nvalue = [0, 0, 0 ..., 0, 0, 0]"] ;
640 -> 642 ;
643 [label="gini = 0.0\nsamples = 1\nvalue = [0, 0, 0 ..., 0, 0, 0]"] ;
642 -> 643 ;
644 [label="gini = 0.0\nsamples = 1\nvalue = [0, 0, 0 ..., 0, 0, 0]"] ;
642 -> 644 ;
645 [label="gini = 0.0\nsamples = 1\nvalue = [0, 0, 0 ..., 0, 0, 0]"] ;
639 -> 645 ;
646 [label="X[2] <= 4.5\ngini = 0.9444\nsamples = 18\nvalue = [0, 0, 0 ..., 0, 0, 0]"] ;
638 -> 646 ;
647 [label="X[8] <= 0.5\ngini = 0.5\nsamples = 2\nvalue = [0, 0, 0 ..., 0, 0, 0]"] ;
646 -> 647 ;
648 [label="gini = 0.0\nsamples = 1\nvalue = [0, 0, 0 ..., 0, 0, 0]"] ;
647 -> 648 ;
649 [label="gini = 0.0\nsamples = 1\nvalue = [0, 0, 0 ..., 0, 0, 0]"] ;
647 -> 649 ;
650 [label="X[4] <= 2.0\ngini = 0.9375\nsamples = 16\nvalue = [0, 0, 0 ..., 0, 0, 0]"] ;
646 -> 650 ;
651 [label="X[1] <= 1.7019\ngini = 0.5\nsamples = 2\nvalue = [0, 0, 0 ..., 0, 0, 0]"] ;
650 -> 651 ;
652 [label="gini = 0.0\nsamples = 1\nvalue = [0, 0, 0 ..., 0, 0, 0]"] ;
651 -> 652 ;
653 [label="gini = 0.0\nsamples = 1\nvalue = [0, 0, 0 ..., 0, 0, 0]"] ;
651 -> 653 ;
654 [label="X[2] <= 9.0\ngini = 0.9286\nsamples = 14\nvalue = [0, 0, 0 ..., 0, 0, 0]"] ;
650 -> 654 ;
655 [label="X[7] <= 0.5\ngini = 0.5\nsamples = 2\nvalue = [0, 0, 0 ..., 0, 0, 0]"] ;
654 -> 655 ;
656 [label="gini = 0.0\nsamples = 1\nvalue = [0, 0, 0 ..., 0, 0, 0]"] ;
655 -> 656 ;
657 [label="gini = 0.0\nsamples = 1\nvalue = [0, 0, 0 ..., 0, 0, 0]"] ;
655 -> 657 ;
658 [label="X[0] <= 1.1132\ngini = 0.9167\nsamples = 12\nvalue = [0, 0, 0 ..., 0, 0, 0]"] ;
654 -> 658 ;
659 [label="gini = 0.0\nsamples = 1\nvalue = [0, 0, 0 ..., 0, 0, 0]"] ;
658 -> 659 ;
660 [label="X[3] <= 1.5\ngini = 0.9091\nsamples = 11\nvalue = [0, 0, 0 ..., 0, 0, 0]"] ;
658 -> 660 ;
661 [label="X[1] <= 1.7464\ngini = 0.6667\nsamples = 3\nvalue = [0, 0, 0 ..., 0, 0, 0]"] ;
660 -> 661 ;
662 [label="gini = 0.0\nsamples = 1\nvalue = [0, 0, 0 ..., 0, 0, 0]"] ;
661 -> 662 ;
663 [label="X[1] <= 1.8694\ngini = 0.5\nsamples = 2\nvalue = [0, 0, 0 ..., 0, 0, 0]"] ;
661 -> 663 ;
664 [label="gini = 0.0\nsamples = 1\nvalue = [0, 0, 0 ..., 0, 0, 0]"] ;
663 -> 664 ;
665 [label="gini = 0.0\nsamples = 1\nvalue = [0, 0, 0 ..., 0, 0, 0]"] ;
663 -> 665 ;
666 [label="X[5] <= 0.5\ngini = 0.875\nsamples = 8\nvalue = [0, 0, 0 ..., 0, 0, 0]"] ;
660 -> 666 ;
667 [label="X[3] <= 4.5\ngini = 0.75\nsamples = 4\nvalue = [0, 0, 0 ..., 0, 0, 0]"] ;
666 -> 667 ;
668 [label="X[4] <= 8.0\ngini = 0.5\nsamples = 2\nvalue = [0, 0, 0 ..., 0, 0, 0]"] ;
667 -> 668 ;
669 [label="gini = 0.0\nsamples = 1\nvalue = [0, 0, 0 ..., 0, 0, 0]"] ;
668 -> 669 ;
670 [label="gini = 0.0\nsamples = 1\nvalue = [0, 0, 0 ..., 0, 0, 0]"] ;
668 -> 670 ;
671 [label="X[4] <= 7.5\ngini = 0.5\nsamples = 2\nvalue = [0, 0, 0 ..., 0, 0, 0]"] ;
667 -> 671 ;
672 [label="gini = 0.0\nsamples = 1\nvalue = [0, 0, 0 ..., 0, 0, 0]"] ;
671 -> 672 ;
673 [label="gini = 0.0\nsamples = 1\nvalue = [0, 0, 0 ..., 0, 0, 0]"] ;
671 -> 673 ;
674 [label="X[1] <= 1.508\ngini = 0.75\nsamples = 4\nvalue = [0, 0, 0 ..., 0, 0, 0]"] ;
666 -> 674 ;
675 [label="gini = 0.0\nsamples = 1\nvalue = [0, 0, 0 ..., 0, 0, 0]"] ;
674 -> 675 ;
676 [label="X[2] <= 20.5\ngini = 0.6667\nsamples = 3\nvalue = [0, 0, 0 ..., 0, 0, 0]"] ;
674 -> 676 ;
677 [label="gini = 0.0\nsamples = 1\nvalue = [0, 0, 0 ..., 0, 0, 0]"] ;
676 -> 677 ;
678 [label="X[3] <= 4.0\ngini = 0.5\nsamples = 2\nvalue = [0, 0, 0 ..., 0, 0, 0]"] ;
676 -> 678 ;
679 [label="gini = 0.0\nsamples = 1\nvalue = [0, 0, 0 ..., 0, 0, 0]"] ;
678 -> 679 ;
680 [label="gini = 0.0\nsamples = 1\nvalue = [0, 0, 0 ..., 0, 0, 0]"] ;
678 -> 680 ;
681 [label="X[0] <= 1.7815\ngini = 0.8163\nsamples = 7\nvalue = [0, 0, 0 ..., 0, 0, 0]"] ;
519 -> 681 ;
682 [label="X[7] <= 0.5\ngini = 0.4444\nsamples = 3\nvalue = [0, 0, 0 ..., 0, 0, 0]"] ;
681 -> 682 ;
683 [label="gini = 0.0\nsamples = 2\nvalue = [0, 0, 0 ..., 0, 0, 0]"] ;
682 -> 683 ;
684 [label="gini = 0.0\nsamples = 1\nvalue = [0, 0, 0 ..., 0, 0, 0]"] ;
682 -> 684 ;
685 [label="X[4] <= 3.5\ngini = 0.75\nsamples = 4\nvalue = [0, 0, 0 ..., 0, 0, 0]"] ;
681 -> 685 ;
686 [label="gini = 0.0\nsamples = 1\nvalue = [0, 0, 0 ..., 0, 0, 0]"] ;
685 -> 686 ;
687 [label="X[1] <= 0.9574\ngini = 0.6667\nsamples = 3\nvalue = [0, 0, 0 ..., 0, 0, 0]"] ;
685 -> 687 ;
688 [label="gini = 0.0\nsamples = 1\nvalue = [0, 0, 0 ..., 0, 0, 0]"] ;
687 -> 688 ;
689 [label="X[4] <= 7.5\ngini = 0.5\nsamples = 2\nvalue = [0, 0, 0 ..., 0, 0, 0]"] ;
687 -> 689 ;
690 [label="gini = 0.0\nsamples = 1\nvalue = [0, 0, 0 ..., 0, 0, 0]"] ;
689 -> 690 ;
691 [label="gini = 0.0\nsamples = 1\nvalue = [0, 0, 0 ..., 0, 0, 0]"] ;
689 -> 691 ;
692 [label="X[1] <= 0.4827\ngini = 0.9527\nsamples = 26\nvalue = [0, 0, 0 ..., 0, 0, 0]"] ;
518 -> 692 ;
693 [label="X[0] <= 1.8981\ngini = 0.7755\nsamples = 7\nvalue = [0, 0, 0 ..., 0, 0, 0]"] ;
692 -> 693 ;
694 [label="gini = 0.0\nsamples = 2\nvalue = [0, 0, 0 ..., 0, 0, 0]"] ;
693 -> 694 ;
695 [label="X[0] <= 1.9392\ngini = 0.72\nsamples = 5\nvalue = [0, 0, 0 ..., 0, 0, 0]"] ;
693 -> 695 ;
696 [label="gini = 0.0\nsamples = 2\nvalue = [0, 0, 0 ..., 0, 0, 0]"] ;
695 -> 696 ;
697 [label="X[2] <= 2.5\ngini = 0.6667\nsamples = 3\nvalue = [0, 0, 0 ..., 0, 0, 0]"] ;
695 -> 697 ;
698 [label="gini = 0.0\nsamples = 1\nvalue = [0, 0, 0 ..., 0, 0, 0]"] ;
697 -> 698 ;
699 [label="X[4] <= 1.5\ngini = 0.5\nsamples = 2\nvalue = [0, 0, 0 ..., 0, 0, 0]"] ;
697 -> 699 ;
700 [label="gini = 0.0\nsamples = 1\nvalue = [0, 0, 0 ..., 0, 0, 0]"] ;
699 -> 700 ;
701 [label="gini = 0.0\nsamples = 1\nvalue = [0, 0, 0 ..., 0, 0, 0]"] ;
699 -> 701 ;
702 [label="X[2] <= 14.5\ngini = 0.9418\nsamples = 19\nvalue = [0, 0, 0 ..., 0, 0, 0]"] ;
692 -> 702 ;
703 [label="X[1] <= 0.5845\ngini = 0.9167\nsamples = 12\nvalue = [0, 0, 0 ..., 0, 0, 0]"] ;
702 -> 703 ;
704 [label="gini = 0.0\nsamples = 1\nvalue = [0, 0, 0 ..., 0, 0, 0]"] ;
703 -> 704 ;
705 [label="X[2] <= 2.5\ngini = 0.9091\nsamples = 11\nvalue = [0, 0, 0 ..., 0, 0, 0]"] ;
703 -> 705 ;
706 [label="gini = 0.0\nsamples = 1\nvalue = [0, 0, 0 ..., 0, 0, 0]"] ;
705 -> 706 ;
707 [label="X[7] <= 0.5\ngini = 0.9\nsamples = 10\nvalue = [0, 0, 0 ..., 0, 0, 0]"] ;
705 -> 707 ;
708 [label="X[2] <= 4.5\ngini = 0.8333\nsamples = 6\nvalue = [0, 0, 0 ..., 0, 0, 0]"] ;
707 -> 708 ;
709 [label="X[4] <= 10.5\ngini = 0.5\nsamples = 2\nvalue = [0, 0, 0 ..., 0, 0, 0]"] ;
708 -> 709 ;
710 [label="gini = 0.0\nsamples = 1\nvalue = [0, 0, 0 ..., 0, 0, 0]"] ;
709 -> 710 ;
711 [label="gini = 0.0\nsamples = 1\nvalue = [0, 0, 0 ..., 0, 0, 0]"] ;
709 -> 711 ;
712 [label="X[3] <= 1.0\ngini = 0.75\nsamples = 4\nvalue = [0, 0, 0 ..., 0, 0, 0]"] ;
708 -> 712 ;
713 [label="gini = 0.0\nsamples = 1\nvalue = [0, 0, 0 ..., 0, 0, 0]"] ;
712 -> 713 ;
714 [label="X[1] <= 0.9017\ngini = 0.6667\nsamples = 3\nvalue = [0, 0, 0 ..., 0, 0, 0]"] ;
712 -> 714 ;
715 [label="gini = 0.0\nsamples = 1\nvalue = [0, 0, 0 ..., 0, 0, 0]"] ;
714 -> 715 ;
716 [label="X[1] <= 1.4765\ngini = 0.5\nsamples = 2\nvalue = [0, 0, 0 ..., 0, 0, 0]"] ;
714 -> 716 ;
717 [label="gini = 0.0\nsamples = 1\nvalue = [0, 0, 0 ..., 0, 0, 0]"] ;
716 -> 717 ;
718 [label="gini = 0.0\nsamples = 1\nvalue = [0, 0, 0 ..., 0, 0, 0]"] ;
716 -> 718 ;
719 [label="X[6] <= 0.5\ngini = 0.75\nsamples = 4\nvalue = [0, 0, 0 ..., 0, 0, 0]"] ;
707 -> 719 ;
720 [label="X[2] <= 11.5\ngini = 0.6667\nsamples = 3\nvalue = [0, 0, 0 ..., 0, 0, 0]"] ;
719 -> 720 ;
721 [label="gini = 0.0\nsamples = 1\nvalue = [0, 0, 0 ..., 0, 0, 0]"] ;
720 -> 721 ;
722 [label="X[0] <= 1.9651\ngini = 0.5\nsamples = 2\nvalue = [0, 0, 0 ..., 0, 0, 0]"] ;
720 -> 722 ;
723 [label="gini = 0.0\nsamples = 1\nvalue = [0, 0, 0 ..., 0, 0, 0]"] ;
722 -> 723 ;
724 [label="gini = 0.0\nsamples = 1\nvalue = [0, 0, 0 ..., 0, 0, 0]"] ;
722 -> 724 ;
725 [label="gini = 0.0\nsamples = 1\nvalue = [0, 0, 0 ..., 0, 0, 0]"] ;
719 -> 725 ;
726 [label="X[4] <= 4.0\ngini = 0.8163\nsamples = 7\nvalue = [0, 0, 0 ..., 0, 0, 0]"] ;
702 -> 726 ;
727 [label="X[5] <= 0.5\ngini = 0.75\nsamples = 4\nvalue = [0, 0, 0 ..., 0, 0, 0]"] ;
726 -> 727 ;
728 [label="gini = 0.0\nsamples = 1\nvalue = [0, 0, 0 ..., 0, 0, 0]"] ;
727 -> 728 ;
729 [label="X[3] <= 2.0\ngini = 0.6667\nsamples = 3\nvalue = [0, 0, 0 ..., 0, 0, 0]"] ;
727 -> 729 ;
730 [label="gini = 0.0\nsamples = 1\nvalue = [0, 0, 0 ..., 0, 0, 0]"] ;
729 -> 730 ;
731 [label="X[0] <= 1.9208\ngini = 0.5\nsamples = 2\nvalue = [0, 0, 0 ..., 0, 0, 0]"] ;
729 -> 731 ;
732 [label="gini = 0.0\nsamples = 1\nvalue = [0, 0, 0 ..., 0, 0, 0]"] ;
731 -> 732 ;
733 [label="gini = 0.0\nsamples = 1\nvalue = [0, 0, 0 ..., 0, 0, 0]"] ;
731 -> 733 ;
734 [label="X[1] <= 1.3328\ngini = 0.4444\nsamples = 3\nvalue = [0, 0, 0 ..., 0, 0, 0]"] ;
726 -> 734 ;
735 [label="gini = 0.0\nsamples = 2\nvalue = [0, 0, 0 ..., 0, 0, 0]"] ;
734 -> 735 ;
736 [label="gini = 0.0\nsamples = 1\nvalue = [0, 0, 0 ..., 0, 0, 0]"] ;
734 -> 736 ;
737 [label="X[1] <= 2.1123\ngini = 0.9452\nsamples = 23\nvalue = [0, 0, 0 ..., 0, 0, 0]"] ;
517 -> 737 ;
738 [label="X[3] <= 5.5\ngini = 0.375\nsamples = 4\nvalue = [0, 0, 0 ..., 0, 0, 0]"] ;
737 -> 738 ;
739 [label="gini = 0.0\nsamples = 3\nvalue = [0, 0, 0 ..., 0, 0, 0]"] ;
738 -> 739 ;
740 [label="gini = 0.0\nsamples = 1\nvalue = [0, 0, 0 ..., 0, 0, 0]"] ;
738 -> 740 ;
741 [label="X[6] <= 0.5\ngini = 0.9474\nsamples = 19\nvalue = [0, 0, 0 ..., 0, 0, 0]"] ;
737 -> 741 ;
742 [label="X[2] <= 5.5\ngini = 0.9375\nsamples = 16\nvalue = [0, 0, 0 ..., 0, 0, 0]"] ;
741 -> 742 ;
743 [label="gini = 0.0\nsamples = 1\nvalue = [0, 0, 0 ..., 0, 0, 0]"] ;
742 -> 743 ;
744 [label="X[0] <= 1.1564\ngini = 0.9333\nsamples = 15\nvalue = [0, 0, 0 ..., 0, 0, 0]"] ;
742 -> 744 ;
745 [label="gini = 0.0\nsamples = 1\nvalue = [0, 0, 0 ..., 0, 0, 0]"] ;
744 -> 745 ;
746 [label="X[2] <= 6.5\ngini = 0.9286\nsamples = 14\nvalue = [0, 0, 0 ..., 0, 0, 0]"] ;
744 -> 746 ;
747 [label="gini = 0.0\nsamples = 1\nvalue = [0, 0, 0 ..., 0, 0, 0]"] ;
746 -> 747 ;
748 [label="X[7] <= 0.5\ngini = 0.9231\nsamples = 13\nvalue = [0, 0, 0 ..., 0, 0, 0]"] ;
746 -> 748 ;
749 [label="X[8] <= 0.5\ngini = 0.875\nsamples = 8\nvalue = [0, 0, 0 ..., 0, 0, 0]"] ;
748 -> 749 ;
750 [label="X[3] <= 0.5\ngini = 0.8571\nsamples = 7\nvalue = [0, 0, 0 ..., 0, 0, 0]"] ;
749 -> 750 ;
751 [label="gini = 0.0\nsamples = 1\nvalue = [0, 0, 0 ..., 0, 0, 0]"] ;
750 -> 751 ;
752 [label="X[3] <= 1.5\ngini = 0.8333\nsamples = 6\nvalue = [0, 0, 0 ..., 0, 0, 0]"] ;
750 -> 752 ;
753 [label="gini = 0.0\nsamples = 1\nvalue = [0, 0, 0 ..., 0, 0, 0]"] ;
752 -> 753 ;
754 [label="X[0] <= 1.3183\ngini = 0.8\nsamples = 5\nvalue = [0, 0, 0 ..., 0, 0, 0]"] ;
752 -> 754 ;
755 [label="gini = 0.0\nsamples = 1\nvalue = [0, 0, 0 ..., 0, 0, 0]"] ;
754 -> 755 ;
756 [label="X[1] <= 2.293\ngini = 0.75\nsamples = 4\nvalue = [0, 0, 0 ..., 0, 0, 0]"] ;
754 -> 756 ;
757 [label="gini = 0.0\nsamples = 1\nvalue = [0, 0, 0 ..., 0, 0, 0]"] ;
756 -> 757 ;
758 [label="X[3] <= 2.5\ngini = 0.6667\nsamples = 3\nvalue = [0, 0, 0 ..., 0, 0, 0]"] ;
756 -> 758 ;
759 [label="X[1] <= 2.3438\ngini = 0.5\nsamples = 2\nvalue = [0, 0, 0 ..., 0, 0, 0]"] ;
758 -> 759 ;
760 [label="gini = 0.0\nsamples = 1\nvalue = [0, 0, 0 ..., 0, 0, 0]"] ;
759 -> 760 ;
761 [label="gini = 0.0\nsamples = 1\nvalue = [0, 0, 0 ..., 0, 0, 0]"] ;
759 -> 761 ;
762 [label="gini = 0.0\nsamples = 1\nvalue = [0, 0, 0 ..., 0, 0, 0]"] ;
758 -> 762 ;
763 [label="gini = 0.0\nsamples = 1\nvalue = [0, 0, 0 ..., 0, 0, 0]"] ;
749 -> 763 ;
764 [label="X[2] <= 10.0\ngini = 0.8\nsamples = 5\nvalue = [0, 0, 0 ..., 0, 0, 0]"] ;
748 -> 764 ;
765 [label="gini = 0.0\nsamples = 1\nvalue = [0, 0, 0 ..., 0, 0, 0]"] ;
764 -> 765 ;
766 [label="X[0] <= 1.3657\ngini = 0.75\nsamples = 4\nvalue = [0, 0, 0 ..., 0, 0, 0]"] ;
764 -> 766 ;
767 [label="gini = 0.0\nsamples = 1\nvalue = [0, 0, 0 ..., 0, 0, 0]"] ;
766 -> 767 ;
768 [label="X[0] <= 1.451\ngini = 0.6667\nsamples = 3\nvalue = [0, 0, 0 ..., 0, 0, 0]"] ;
766 -> 768 ;
769 [label="gini = 0.0\nsamples = 1\nvalue = [0, 0, 0 ..., 0, 0, 0]"] ;
768 -> 769 ;
770 [label="X[0] <= 1.5509\ngini = 0.5\nsamples = 2\nvalue = [0, 0, 0 ..., 0, 0, 0]"] ;
768 -> 770 ;
771 [label="gini = 0.0\nsamples = 1\nvalue = [0, 0, 0 ..., 0, 0, 0]"] ;
770 -> 771 ;
772 [label="gini = 0.0\nsamples = 1\nvalue = [0, 0, 0 ..., 0, 0, 0]"] ;
770 -> 772 ;
773 [label="X[0] <= 1.2631\ngini = 0.6667\nsamples = 3\nvalue = [0, 0, 0 ..., 0, 0, 0]"] ;
741 -> 773 ;
774 [label="gini = 0.0\nsamples = 1\nvalue = [0, 0, 0 ..., 0, 0, 0]"] ;
773 -> 774 ;
775 [label="X[8] <= 0.5\ngini = 0.5\nsamples = 2\nvalue = [0, 0, 0 ..., 0, 0, 0]"] ;
773 -> 775 ;
776 [label="gini = 0.0\nsamples = 1\nvalue = [0, 0, 0 ..., 0, 0, 0]"] ;
775 -> 776 ;
777 [label="gini = 0.0\nsamples = 1\nvalue = [0, 0, 0 ..., 0, 0, 0]"] ;
775 -> 777 ;
778 [label="X[1] <= 0.766\ngini = 0.9989\nsamples = 973\nvalue = [0, 0, 0 ..., 0, 0, 0]"] ;
516 -> 778 ;
779 [label="X[1] <= 0.755\ngini = 0.9961\nsamples = 288\nvalue = [0, 0, 0 ..., 0, 0, 0]"] ;
778 -> 779 ;
780 [label="X[1] <= 0.7193\ngini = 0.9961\nsamples = 283\nvalue = [0, 0, 0 ..., 0, 0, 0]"] ;
779 -> 780 ;
781 [label="X[0] <= 2.489\ngini = 0.9958\nsamples = 262\nvalue = [0, 0, 0 ..., 0, 0, 0]"] ;
780 -> 781 ;
782 [label="X[0] <= 2.4242\ngini = 0.9363\nsamples = 19\nvalue = [0, 0, 0 ..., 0, 0, 0]"] ;
781 -> 782 ;
783 [label="X[1] <= 0.3551\ngini = 0.9297\nsamples = 16\nvalue = [0, 0, 0 ..., 0, 0, 0]"] ;
782 -> 783 ;
784 [label="X[1] <= 0.2995\ngini = 0.7778\nsamples = 6\nvalue = [0, 0, 0 ..., 0, 0, 0]"] ;
783 -> 784 ;
785 [label="X[8] <= 0.5\ngini = 0.75\nsamples = 4\nvalue = [0, 0, 0 ..., 0, 0, 0]"] ;
784 -> 785 ;
786 [label="X[0] <= 2.2509\ngini = 0.6667\nsamples = 3\nvalue = [0, 0, 0 ..., 0, 0, 0]"] ;
785 -> 786 ;
787 [label="gini = 0.0\nsamples = 1\nvalue = [0, 0, 0 ..., 0, 0, 0]"] ;
786 -> 787 ;
788 [label="X[3] <= 3.5\ngini = 0.5\nsamples = 2\nvalue = [0, 0, 0 ..., 0, 0, 0]"] ;
786 -> 788 ;
789 [label="gini = 0.0\nsamples = 1\nvalue = [0, 0, 0 ..., 0, 0, 0]"] ;
788 -> 789 ;
790 [label="gini = 0.0\nsamples = 1\nvalue = [0, 0, 0 ..., 0, 0, 0]"] ;
788 -> 790 ;
791 [label="gini = 0.0\nsamples = 1\nvalue = [0, 0, 0 ..., 0, 0, 0]"] ;
785 -> 791 ;
792 [label="gini = 0.0\nsamples = 2\nvalue = [0, 0, 0 ..., 0, 0, 0]"] ;
784 -> 792 ;
793 [label="X[4] <= 1.5\ngini = 0.9\nsamples = 10\nvalue = [0, 0, 0 ..., 0, 0, 0]"] ;
783 -> 793 ;
794 [label="gini = 0.0\nsamples = 1\nvalue = [0, 0, 0 ..., 0, 0, 0]"] ;
793 -> 794 ;
795 [label="X[5] <= 0.5\ngini = 0.8889\nsamples = 9\nvalue = [0, 0, 0 ..., 0, 0, 0]"] ;
793 -> 795 ;
796 [label="X[3] <= 0.5\ngini = 0.8333\nsamples = 6\nvalue = [0, 0, 0 ..., 0, 0, 0]"] ;
795 -> 796 ;
797 [label="gini = 0.0\nsamples = 1\nvalue = [0, 0, 0 ..., 0, 0, 0]"] ;
796 -> 797 ;
798 [label="X[4] <= 3.0\ngini = 0.8\nsamples = 5\nvalue = [0, 0, 0 ..., 0, 0, 0]"] ;
796 -> 798 ;
799 [label="X[0] <= 2.2847\ngini = 0.5\nsamples = 2\nvalue = [0, 0, 0 ..., 0, 0, 0]"] ;
798 -> 799 ;
800 [label="gini = 0.0\nsamples = 1\nvalue = [0, 0, 0 ..., 0, 0, 0]"] ;
799 -> 800 ;
801 [label="gini = 0.0\nsamples = 1\nvalue = [0, 0, 0 ..., 0, 0, 0]"] ;
799 -> 801 ;
802 [label="X[0] <= 2.1807\ngini = 0.6667\nsamples = 3\nvalue = [0, 0, 0 ..., 0, 0, 0]"] ;
798 -> 802 ;
803 [label="gini = 0.0\nsamples = 1\nvalue = [0, 0, 0 ..., 0, 0, 0]"] ;
802 -> 803 ;
804 [label="X[3] <= 2.5\ngini = 0.5\nsamples = 2\nvalue = [0, 0, 0 ..., 0, 0, 0]"] ;
802 -> 804 ;
805 [label="gini = 0.0\nsamples = 1\nvalue = [0, 0, 0 ..., 0, 0, 0]"] ;
804 -> 805 ;
806 [label="gini = 0.0\nsamples = 1\nvalue = [0, 0, 0 ..., 0, 0, 0]"] ;
804 -> 806 ;
807 [label="X[1] <= 0.4078\ngini = 0.6667\nsamples = 3\nvalue = [0, 0, 0 ..., 0, 0, 0]"] ;
795 -> 807 ;
808 [label="gini = 0.0\nsamples = 1\nvalue = [0, 0, 0 ..., 0, 0, 0]"] ;
807 -> 808 ;
809 [label="X[2] <= 20.0\ngini = 0.5\nsamples = 2\nvalue = [0, 0, 0 ..., 0, 0, 0]"] ;
807 -> 809 ;
810 [label="gini = 0.0\nsamples = 1\nvalue = [0, 0, 0 ..., 0, 0, 0]"] ;
809 -> 810 ;
811 [label="gini = 0.0\nsamples = 1\nvalue = [0, 0, 0 ..., 0, 0, 0]"] ;
809 -> 811 ;
812 [label="X[1] <= 0.477\ngini = 0.4444\nsamples = 3\nvalue = [0, 0, 0 ..., 0, 0, 0]"] ;
782 -> 812 ;
813 [label="gini = 0.0\nsamples = 1\nvalue = [0, 0, 0 ..., 0, 0, 0]"] ;
812 -> 813 ;
814 [label="gini = 0.0\nsamples = 2\nvalue = [0, 0, 0 ..., 0, 0, 0]"] ;
812 -> 814 ;
815 [label="X[1] <= 0.6707\ngini = 0.9955\nsamples = 243\nvalue = [0, 0, 0 ..., 0, 0, 0]"] ;
781 -> 815 ;
816 [label="X[1] <= 0.5388\ngini = 0.995\nsamples = 220\nvalue = [0, 0, 0 ..., 0, 0, 0]"] ;
815 -> 816 ;
817 [label="X[0] <= 2.6936\ngini = 0.9936\nsamples = 166\nvalue = [0, 0, 0 ..., 0, 0, 0]"] ;
816 -> 817 ;
818 [label="X[1] <= 0.2116\ngini = 0.9028\nsamples = 12\nvalue = [0, 0, 0 ..., 0, 0, 0]"] ;
817 -> 818 ;
819 [label="X[1] <= 0.1864\ngini = 0.625\nsamples = 4\nvalue = [0, 0, 0 ..., 0, 0, 0]"] ;
818 -> 819 ;
820 [label="X[4] <= 7.5\ngini = 0.5\nsamples = 2\nvalue = [0, 0, 0 ..., 0, 0, 0]"] ;
819 -> 820 ;
821 [label="gini = 0.0\nsamples = 1\nvalue = [0, 0, 0 ..., 0, 0, 0]"] ;
820 -> 821 ;
822 [label="gini = 0.0\nsamples = 1\nvalue = [0, 0, 0 ..., 0, 0, 0]"] ;
820 -> 822 ;
823 [label="gini = 0.0\nsamples = 2\nvalue = [0, 0, 0 ..., 0, 0, 0]"] ;
819 -> 823 ;
824 [label="X[3] <= 1.0\ngini = 0.875\nsamples = 8\nvalue = [0, 0, 0 ..., 0, 0, 0]"] ;
818 -> 824 ;
825 [label="gini = 0.0\nsamples = 1\nvalue = [0, 0, 0 ..., 0, 0, 0]"] ;
824 -> 825 ;
826 [label="X[4] <= 2.5\ngini = 0.8571\nsamples = 7\nvalue = [0, 0, 0 ..., 0, 0, 0]"] ;
824 -> 826 ;
827 [label="X[2] <= 12.5\ngini = 0.5\nsamples = 2\nvalue = [0, 0, 0 ..., 0, 0, 0]"] ;
826 -> 827 ;
828 [label="gini = 0.0\nsamples = 1\nvalue = [0, 0, 0 ..., 0, 0, 0]"] ;
827 -> 828 ;
829 [label="gini = 0.0\nsamples = 1\nvalue = [0, 0, 0 ..., 0, 0, 0]"] ;
827 -> 829 ;
830 [label="X[5] <= 0.5\ngini = 0.8\nsamples = 5\nvalue = [0, 0, 0 ..., 0, 0, 0]"] ;
826 -> 830 ;
831 [label="X[0] <= 2.5904\ngini = 0.5\nsamples = 2\nvalue = [0, 0, 0 ..., 0, 0, 0]"] ;
830 -> 831 ;
832 [label="gini = 0.0\nsamples = 1\nvalue = [0, 0, 0 ..., 0, 0, 0]"] ;
831 -> 832 ;
833 [label="gini = 0.0\nsamples = 1\nvalue = [0, 0, 0 ..., 0, 0, 0]"] ;
831 -> 833 ;
834 [label="X[0] <= 2.6221\ngini = 0.6667\nsamples = 3\nvalue = [0, 0, 0 ..., 0, 0, 0]"] ;
830 -> 834 ;
835 [label="gini = 0.0\nsamples = 1\nvalue = [0, 0, 0 ..., 0, 0, 0]"] ;
834 -> 835 ;
836 [label="X[3] <= 5.5\ngini = 0.5\nsamples = 2\nvalue = [0, 0, 0 ..., 0, 0, 0]"] ;
834 -> 836 ;
837 [label="gini = 0.0\nsamples = 1\nvalue = [0, 0, 0 ..., 0, 0, 0]"] ;
836 -> 837 ;
838 [label="gini = 0.0\nsamples = 1\nvalue = [0, 0, 0 ..., 0, 0, 0]"] ;
836 -> 838 ;
839 [label="X[0] <= 7.6924\ngini = 0.9932\nsamples = 154\nvalue = [0, 0, 0 ..., 0, 0, 0]"] ;
817 -> 839 ;
840 [label="X[0] <= 7.1494\ngini = 0.9914\nsamples = 118\nvalue = [0, 0, 0 ..., 0, 0, 0]"] ;
839 -> 840 ;
841 [label="X[1] <= 0.1457\ngini = 0.9899\nsamples = 99\nvalue = [0, 0, 0 ..., 0, 0, 0]"] ;
840 -> 841 ;
842 [label="gini = 0.0\nsamples = 1\nvalue = [0, 0, 0 ..., 0, 0, 0]"] ;
841 -> 842 ;
843 [label="X[4] <= 1.5\ngini = 0.9898\nsamples = 98\nvalue = [0, 0, 0 ..., 0, 0, 0]"] ;
841 -> 843 ;
844 [label="X[0] <= 3.0196\ngini = 0.9\nsamples = 10\nvalue = [0, 0, 0 ..., 0, 0, 0]"] ;
843 -> 844 ;
845 [label="gini = 0.0\nsamples = 1\nvalue = [0, 0, 0 ..., 0, 0, 0]"] ;
844 -> 845 ;
846 [label="X[5] <= 0.5\ngini = 0.8889\nsamples = 9\nvalue = [0, 0, 0 ..., 0, 0, 0]"] ;
844 -> 846 ;
847 [label="X[3] <= 0.5\ngini = 0.8571\nsamples = 7\nvalue = [0, 0, 0 ..., 0, 0, 0]"] ;
846 -> 847 ;
848 [label="gini = 0.0\nsamples = 1\nvalue = [0, 0, 0 ..., 0, 0, 0]"] ;
847 -> 848 ;
849 [label="X[2] <= 3.0\ngini = 0.8333\nsamples = 6\nvalue = [0, 0, 0 ..., 0, 0, 0]"] ;
847 -> 849 ;
850 [label="X[0] <= 4.1062\ngini = 0.6667\nsamples = 3\nvalue = [0, 0, 0 ..., 0, 0, 0]"] ;
849 -> 850 ;
851 [label="gini = 0.0\nsamples = 1\nvalue = [0, 0, 0 ..., 0, 0, 0]"] ;
850 -> 851 ;
852 [label="X[7] <= 0.5\ngini = 0.5\nsamples = 2\nvalue = [0, 0, 0 ..., 0, 0, 0]"] ;
850 -> 852 ;
853 [label="gini = 0.0\nsamples = 1\nvalue = [0, 0, 0 ..., 0, 0, 0]"] ;
852 -> 853 ;
854 [label="gini = 0.0\nsamples = 1\nvalue = [0, 0, 0 ..., 0, 0, 0]"] ;
852 -> 854 ;
855 [label="X[3] <= 4.5\ngini = 0.6667\nsamples = 3\nvalue = [0, 0, 0 ..., 0, 0, 0]"] ;
849 -> 855 ;
856 [label="gini = 0.0\nsamples = 1\nvalue = [0, 0, 0 ..., 0, 0, 0]"] ;
855 -> 856 ;
857 [label="X[3] <= 5.5\ngini = 0.5\nsamples = 2\nvalue = [0, 0, 0 ..., 0, 0, 0]"] ;
855 -> 857 ;
858 [label="gini = 0.0\nsamples = 1\nvalue = [0, 0, 0 ..., 0, 0, 0]"] ;
857 -> 858 ;
859 [label="gini = 0.0\nsamples = 1\nvalue = [0, 0, 0 ..., 0, 0, 0]"] ;
857 -> 859 ;
860 [label="X[1] <= 0.3197\ngini = 0.5\nsamples = 2\nvalue = [0, 0, 0 ..., 0, 0, 0]"] ;
846 -> 860 ;
861 [label="gini = 0.0\nsamples = 1\nvalue = [0, 0, 0 ..., 0, 0, 0]"] ;
860 -> 861 ;
862 [label="gini = 0.0\nsamples = 1\nvalue = [0, 0, 0 ..., 0, 0, 0]"] ;
860 -> 862 ;
863 [label="X[2] <= 0.5\ngini = 0.9886\nsamples = 88\nvalue = [0, 0, 0 ..., 0, 0, 0]"] ;
843 -> 863 ;
864 [label="X[1] <= 0.4222\ngini = 0.6667\nsamples = 3\nvalue = [0, 0, 0 ..., 0, 0, 0]"] ;
863 -> 864 ;
865 [label="gini = 0.0\nsamples = 1\nvalue = [0, 0, 0 ..., 0, 0, 0]"] ;
864 -> 865 ;
866 [label="X[0] <= 6.2313\ngini = 0.5\nsamples = 2\nvalue = [0, 0, 0 ..., 0, 0, 0]"] ;
864 -> 866 ;
867 [label="gini = 0.0\nsamples = 1\nvalue = [0, 0, 0 ..., 0, 0, 0]"] ;
866 -> 867 ;
868 [label="gini = 0.0\nsamples = 1\nvalue = [0, 0, 0 ..., 0, 0, 0]"] ;
866 -> 868 ;
869 [label="X[3] <= 0.5\ngini = 0.9882\nsamples = 85\nvalue = [0, 0, 0 ..., 0, 0, 0]"] ;
863 -> 869 ;
870 [label="X[8] <= 0.5\ngini = 0.8571\nsamples = 7\nvalue = [0, 0, 0 ..., 0, 0, 0]"] ;
869 -> 870 ;
871 [label="X[5] <= 0.5\ngini = 0.8\nsamples = 5\nvalue = [0, 0, 0 ..., 0, 0, 0]"] ;
870 -> 871 ;
872 [label="X[4] <= 3.0\ngini = 0.5\nsamples = 2\nvalue = [0, 0, 0 ..., 0, 0, 0]"] ;
871 -> 872 ;
873 [label="gini = 0.0\nsamples = 1\nvalue = [0, 0, 0 ..., 0, 0, 0]"] ;
872 -> 873 ;
874 [label="gini = 0.0\nsamples = 1\nvalue = [0, 0, 0 ..., 0, 0, 0]"] ;
872 -> 874 ;
875 [label="X[0] <= 6.1413\ngini = 0.6667\nsamples = 3\nvalue = [0, 0, 0 ..., 0, 0, 0]"] ;
871 -> 875 ;
876 [label="gini = 0.0\nsamples = 1\nvalue = [0, 0, 0 ..., 0, 0, 0]"] ;
875 -> 876 ;
877 [label="X[1] <= 0.3458\ngini = 0.5\nsamples = 2\nvalue = [0, 0, 0 ..., 0, 0, 0]"] ;
875 -> 877 ;
878 [label="gini = 0.0\nsamples = 1\nvalue = [0, 0, 0 ..., 0, 0, 0]"] ;
877 -> 878 ;
879 [label="gini = 0.0\nsamples = 1\nvalue = [0, 0, 0 ..., 0, 0, 0]"] ;
877 -> 879 ;
880 [label="X[4] <= 9.5\ngini = 0.5\nsamples = 2\nvalue = [0, 0, 0 ..., 0, 0, 0]"] ;
870 -> 880 ;
881 [label="gini = 0.0\nsamples = 1\nvalue = [0, 0, 0 ..., 0, 0, 0]"] ;
880 -> 881 ;
882 [label="gini = 0.0\nsamples = 1\nvalue = [0, 0, 0 ..., 0, 0, 0]"] ;
880 -> 882 ;
883 [label="X[8] <= 0.5\ngini = 0.9872\nsamples = 78\nvalue = [0, 0, 0 ..., 0, 0, 0]"] ;
869 -> 883 ;
884 [label="X[0] <= 2.7357\ngini = 0.9844\nsamples = 64\nvalue = [0, 0, 0 ..., 0, 0, 0]"] ;
883 -> 884 ;
885 [label="gini = 0.0\nsamples = 1\nvalue = [0, 0, 0 ..., 0, 0, 0]"] ;
884 -> 885 ;
886 [label="X[1] <= 0.1491\ngini = 0.9841\nsamples = 63\nvalue = [0, 0, 0 ..., 0, 0, 0]"] ;
884 -> 886 ;
887 [label="gini = 0.0\nsamples = 1\nvalue = [0, 0, 0 ..., 0, 0, 0]"] ;
886 -> 887 ;
888 [label="X[1] <= 0.1527\ngini = 0.9839\nsamples = 62\nvalue = [0, 0, 0 ..., 0, 0, 0]"] ;
886 -> 888 ;
889 [label="gini = 0.0\nsamples = 1\nvalue = [0, 0, 0 ..., 0, 0, 0]"] ;
888 -> 889 ;
890 [label="X[7] <= 0.5\ngini = 0.9836\nsamples = 61\nvalue = [0, 0, 0 ..., 0, 0, 0]"] ;
888 -> 890 ;
891 [label="X[3] <= 1.5\ngini = 0.9787\nsamples = 47\nvalue = [0, 0, 0 ..., 0, 0, 0]"] ;
890 -> 891 ;
892 [label="X[4] <= 2.5\ngini = 0.9333\nsamples = 15\nvalue = [0, 0, 0 ..., 0, 0, 0]"] ;
891 -> 892 ;
893 [label="gini = 0.0\nsamples = 1\nvalue = [0, 0, 0 ..., 0, 0, 0]"] ;
892 -> 893 ;
894 [label="X[4] <= 3.5\ngini = 0.9286\nsamples = 14\nvalue = [0, 0, 0 ..., 0, 0, 0]"] ;
892 -> 894 ;
895 [label="X[2] <= 12.0\ngini = 0.5\nsamples = 2\nvalue = [0, 0, 0 ..., 0, 0, 0]"] ;
894 -> 895 ;
896 [label="gini = 0.0\nsamples = 1\nvalue = [0, 0, 0 ..., 0, 0, 0]"] ;
895 -> 896 ;
897 [label="gini = 0.0\nsamples = 1\nvalue = [0, 0, 0 ..., 0, 0, 0]"] ;
895 -> 897 ;
898 [label="X[6] <= 0.5\ngini = 0.9167\nsamples = 12\nvalue = [0, 0, 0 ..., 0, 0, 0]"] ;
894 -> 898 ;
899 [label="X[4] <= 4.5\ngini = 0.9\nsamples = 10\nvalue = [0, 0, 0 ..., 0, 0, 0]"] ;
898 -> 899 ;
900 [label="gini = 0.0\nsamples = 1\nvalue = [0, 0, 0 ..., 0, 0, 0]"] ;
899 -> 900 ;
901 [label="X[4] <= 5.5\ngini = 0.8889\nsamples = 9\nvalue = [0, 0, 0 ..., 0, 0, 0]"] ;
899 -> 901 ;
902 [label="X[0] <= 4.8703\ngini = 0.5\nsamples = 2\nvalue = [0, 0, 0 ..., 0, 0, 0]"] ;
901 -> 902 ;
903 [label="gini = 0.0\nsamples = 1\nvalue = [0, 0, 0 ..., 0, 0, 0]"] ;
902 -> 903 ;
904 [label="gini = 0.0\nsamples = 1\nvalue = [0, 0, 0 ..., 0, 0, 0]"] ;
902 -> 904 ;
905 [label="X[4] <= 7.5\ngini = 0.8571\nsamples = 7\nvalue = [0, 0, 0 ..., 0, 0, 0]"] ;
901 -> 905 ;
906 [label="X[1] <= 0.265\ngini = 0.75\nsamples = 4\nvalue = [0, 0, 0 ..., 0, 0, 0]"] ;
905 -> 906 ;
907 [label="gini = 0.0\nsamples = 1\nvalue = [0, 0, 0 ..., 0, 0, 0]"] ;
906 -> 907 ;
908 [label="X[2] <= 14.0\ngini = 0.6667\nsamples = 3\nvalue = [0, 0, 0 ..., 0, 0, 0]"] ;
906 -> 908 ;
909 [label="gini = 0.0\nsamples = 1\nvalue = [0, 0, 0 ..., 0, 0, 0]"] ;
908 -> 909 ;
910 [label="X[1] <= 0.4251\ngini = 0.5\nsamples = 2\nvalue = [0, 0, 0 ..., 0, 0, 0]"] ;
908 -> 910 ;
911 [label="gini = 0.0\nsamples = 1\nvalue = [0, 0, 0 ..., 0, 0, 0]"] ;
910 -> 911 ;
912 [label="gini = 0.0\nsamples = 1\nvalue = [0, 0, 0 ..., 0, 0, 0]"] ;
910 -> 912 ;
913 [label="X[5] <= 0.5\ngini = 0.6667\nsamples = 3\nvalue = [0, 0, 0 ..., 0, 0, 0]"] ;
905 -> 913 ;
914 [label="X[2] <= 11.5\ngini = 0.5\nsamples = 2\nvalue = [0, 0, 0 ..., 0, 0, 0]"] ;
913 -> 914 ;
915 [label="gini = 0.0\nsamples = 1\nvalue = [0, 0, 0 ..., 0, 0, 0]"] ;
914 -> 915 ;
916 [label="gini = 0.0\nsamples = 1\nvalue = [0, 0, 0 ..., 0, 0, 0]"] ;
914 -> 916 ;
917 [label="gini = 0.0\nsamples = 1\nvalue = [0, 0, 0 ..., 0, 0, 0]"] ;
913 -> 917 ;
918 [label="X[4] <= 4.5\ngini = 0.5\nsamples = 2\nvalue = [0, 0, 0 ..., 0, 0, 0]"] ;
898 -> 918 ;
919 [label="gini = 0.0\nsamples = 1\nvalue = [0, 0, 0 ..., 0, 0, 0]"] ;
918 -> 919 ;
920 [label="gini = 0.0\nsamples = 1\nvalue = [0, 0, 0 ..., 0, 0, 0]"] ;
918 -> 920 ;
921 [label="X[4] <= 2.5\ngini = 0.9688\nsamples = 32\nvalue = [0, 0, 0 ..., 0, 0, 0]"] ;
891 -> 921 ;
922 [label="X[1] <= 0.4791\ngini = 0.6667\nsamples = 3\nvalue = [0, 0, 0 ..., 0, 0, 0]"] ;
921 -> 922 ;
923 [label="gini = 0.0\nsamples = 1\nvalue = [0, 0, 0 ..., 0, 0, 0]"] ;
922 -> 923 ;
924 [label="X[1] <= 0.521\ngini = 0.5\nsamples = 2\nvalue = [0, 0, 0 ..., 0, 0, 0]"] ;
922 -> 924 ;
925 [label="gini = 0.0\nsamples = 1\nvalue = [0, 0, 0 ..., 0, 0, 0]"] ;
924 -> 925 ;
926 [label="gini = 0.0\nsamples = 1\nvalue = [0, 0, 0 ..., 0, 0, 0]"] ;
924 -> 926 ;
927 [label="X[0] <= 2.8685\ngini = 0.9655\nsamples = 29\nvalue = [0, 0, 0 ..., 0, 0, 0]"] ;
921 -> 927 ;
928 [label="gini = 0.0\nsamples = 1\nvalue = [0, 0, 0 ..., 0, 0, 0]"] ;
927 -> 928 ;
929 [label="X[2] <= 2.0\ngini = 0.9643\nsamples = 28\nvalue = [0, 0, 0 ..., 0, 0, 0]"] ;
927 -> 929 ;
930 [label="gini = 0.0\nsamples = 1\nvalue = [0, 0, 0 ..., 0, 0, 0]"] ;
929 -> 930 ;
931 [label="X[3] <= 2.5\ngini = 0.963\nsamples = 27\nvalue = [0, 0, 0 ..., 0, 0, 0]"] ;
929 -> 931 ;
932 [label="X[1] <= 0.1944\ngini = 0.8333\nsamples = 6\nvalue = [0, 0, 0 ..., 0, 0, 0]"] ;
931 -> 932 ;
933 [label="gini = 0.0\nsamples = 1\nvalue = [0, 0, 0 ..., 0, 0, 0]"] ;
932 -> 933 ;
934 [label="X[6] <= 0.5\ngini = 0.8\nsamples = 5\nvalue = [0, 0, 0 ..., 0, 0, 0]"] ;
932 -> 934 ;
935 [label="X[2] <= 7.0\ngini = 0.75\nsamples = 4\nvalue = [0, 0, 0 ..., 0, 0, 0]"] ;
934 -> 935 ;
936 [label="gini = 0.0\nsamples = 1\nvalue = [0, 0, 0 ..., 0, 0, 0]"] ;
935 -> 936 ;
937 [label="X[5] <= 0.5\ngini = 0.6667\nsamples = 3\nvalue = [0, 0, 0 ..., 0, 0, 0]"] ;
935 -> 937 ;
938 [label="gini = 0.0\nsamples = 1\nvalue = [0, 0, 0 ..., 0, 0, 0]"] ;
937 -> 938 ;
939 [label="X[1] <= 0.2122\ngini = 0.5\nsamples = 2\nvalue = [0, 0, 0 ..., 0, 0, 0]"] ;
937 -> 939 ;
940 [label="gini = 0.0\nsamples = 1\nvalue = [0, 0, 0 ..., 0, 0, 0]"] ;
939 -> 940 ;
941 [label="gini = 0.0\nsamples = 1\nvalue = [0, 0, 0 ..., 0, 0, 0]"] ;
939 -> 941 ;
942 [label="gini = 0.0\nsamples = 1\nvalue = [0, 0, 0 ..., 0, 0, 0]"] ;
934 -> 942 ;
943 [label="X[3] <= 3.5\ngini = 0.9524\nsamples = 21\nvalue = [0, 0, 0 ..., 0, 0, 0]"] ;
931 -> 943 ;
944 [label="X[1] <= 0.1811\ngini = 0.9167\nsamples = 12\nvalue = [0, 0, 0 ..., 0, 0, 0]"] ;
943 -> 944 ;
945 [label="gini = 0.0\nsamples = 1\nvalue = [0, 0, 0 ..., 0, 0, 0]"] ;
944 -> 945 ;
946 [label="X[4] <= 3.5\ngini = 0.9091\nsamples = 11\nvalue = [0, 0, 0 ..., 0, 0, 0]"] ;
944 -> 946 ;
947 [label="X[0] <= 5.0925\ngini = 0.5\nsamples = 2\nvalue = [0, 0, 0 ..., 0, 0, 0]"] ;
946 -> 947 ;
948 [label="gini = 0.0\nsamples = 1\nvalue = [0, 0, 0 ..., 0, 0, 0]"] ;
947 -> 948 ;
949 [label="gini = 0.0\nsamples = 1\nvalue = [0, 0, 0 ..., 0, 0, 0]"] ;
947 -> 949 ;
950 [label="X[0] <= 4.1182\ngini = 0.8889\nsamples = 9\nvalue = [0, 0, 0 ..., 0, 0, 0]"] ;
946 -> 950 ;
951 [label="gini = 0.0\nsamples = 1\nvalue = [0, 0, 0 ..., 0, 0, 0]"] ;
950 -> 951 ;
952 [label="X[4] <= 5.0\ngini = 0.875\nsamples = 8\nvalue = [0, 0, 0 ..., 0, 0, 0]"] ;
950 -> 952 ;
953 [label="gini = 0.0\nsamples = 1\nvalue = [0, 0, 0 ..., 0, 0, 0]"] ;
952 -> 953 ;
954 [label="X[0] <= 4.5953\ngini = 0.8571\nsamples = 7\nvalue = [0, 0, 0 ..., 0, 0, 0]"] ;
952 -> 954 ;
955 [label="gini = 0.0\nsamples = 1\nvalue = [0, 0, 0 ..., 0, 0, 0]"] ;
954 -> 955 ;
956 [label="X[0] <= 4.8425\ngini = 0.8333\nsamples = 6\nvalue = [0, 0, 0 ..., 0, 0, 0]"] ;
954 -> 956 ;
957 [label="gini = 0.0\nsamples = 1\nvalue = [0, 0, 0 ..., 0, 0, 0]"] ;
956 -> 957 ;
958 [label="X[1] <= 0.2045\ngini = 0.8\nsamples = 5\nvalue = [0, 0, 0 ..., 0, 0, 0]"] ;
956 -> 958 ;
959 [label="gini = 0.0\nsamples = 1\nvalue = [0, 0, 0 ..., 0, 0, 0]"] ;
958 -> 959 ;
960 [label="X[4] <= 8.5\ngini = 0.75\nsamples = 4\nvalue = [0, 0, 0 ..., 0, 0, 0]"] ;
958 -> 960 ;
961 [label="X[0] <= 6.7704\ngini = 0.6667\nsamples = 3\nvalue = [0, 0, 0 ..., 0, 0, 0]"] ;
960 -> 961 ;
962 [label="gini = 0.0\nsamples = 1\nvalue = [0, 0, 0 ..., 0, 0, 0]"] ;
961 -> 962 ;
963 [label="X[5] <= 0.5\ngini = 0.5\nsamples = 2\nvalue = [0, 0, 0 ..., 0, 0, 0]"] ;
961 -> 963 ;
964 [label="gini = 0.0\nsamples = 1\nvalue = [0, 0, 0 ..., 0, 0, 0]"] ;
963 -> 964 ;
965 [label="gini = 0.0\nsamples = 1\nvalue = [0, 0, 0 ..., 0, 0, 0]"] ;
963 -> 965 ;
966 [label="gini = 0.0\nsamples = 1\nvalue = [0, 0, 0 ..., 0, 0, 0]"] ;
960 -> 966 ;
967 [label="X[0] <= 3.1405\ngini = 0.8889\nsamples = 9\nvalue = [0, 0, 0 ..., 0, 0, 0]"] ;
943 -> 967 ;
968 [label="gini = 0.0\nsamples = 1\nvalue = [0, 0, 0 ..., 0, 0, 0]"] ;
967 -> 968 ;
969 [label="X[0] <= 3.5834\ngini = 0.875\nsamples = 8\nvalue = [0, 0, 0 ..., 0, 0, 0]"] ;
967 -> 969 ;
970 [label="gini = 0.0\nsamples = 1\nvalue = [0, 0, 0 ..., 0, 0, 0]"] ;
969 -> 970 ;
971 [label="X[0] <= 3.8975\ngini = 0.8571\nsamples = 7\nvalue = [0, 0, 0 ..., 0, 0, 0]"] ;
969 -> 971 ;
972 [label="gini = 0.0\nsamples = 1\nvalue = [0, 0, 0 ..., 0, 0, 0]"] ;
971 -> 972 ;
973 [label="X[2] <= 10.5\ngini = 0.8333\nsamples = 6\nvalue = [0, 0, 0 ..., 0, 0, 0]"] ;
971 -> 973 ;
974 [label="gini = 0.0\nsamples = 1\nvalue = [0, 0, 0 ..., 0, 0, 0]"] ;
973 -> 974 ;
975 [label="X[2] <= 16.5\ngini = 0.8\nsamples = 5\nvalue = [0, 0, 0 ..., 0, 0, 0]"] ;
973 -> 975 ;
976 [label="gini = 0.0\nsamples = 1\nvalue = [0, 0, 0 ..., 0, 0, 0]"] ;
975 -> 976 ;
977 [label="X[1] <= 0.2809\ngini = 0.75\nsamples = 4\nvalue = [0, 0, 0 ..., 0, 0, 0]"] ;
975 -> 977 ;
978 [label="gini = 0.0\nsamples = 1\nvalue = [0, 0, 0 ..., 0, 0, 0]"] ;
977 -> 978 ;
979 [label="X[5] <= 0.5\ngini = 0.6667\nsamples = 3\nvalue = [0, 0, 0 ..., 0, 0, 0]"] ;
977 -> 979 ;
980 [label="gini = 0.0\nsamples = 1\nvalue = [0, 0, 0 ..., 0, 0, 0]"] ;
979 -> 980 ;
981 [label="X[4] <= 7.0\ngini = 0.5\nsamples = 2\nvalue = [0, 0, 0 ..., 0, 0, 0]"] ;
979 -> 981 ;
982 [label="gini = 0.0\nsamples = 1\nvalue = [0, 0, 0 ..., 0, 0, 0]"] ;
981 -> 982 ;
983 [label="gini = 0.0\nsamples = 1\nvalue = [0, 0, 0 ..., 0, 0, 0]"] ;
981 -> 983 ;
984 [label="X[6] <= 0.5\ngini = 0.9286\nsamples = 14\nvalue = [0, 0, 0 ..., 0, 0, 0]"] ;
890 -> 984 ;
985 [label="X[0] <= 2.9668\ngini = 0.8889\nsamples = 9\nvalue = [0, 0, 0 ..., 0, 0, 0]"] ;
984 -> 985 ;
986 [label="gini = 0.0\nsamples = 1\nvalue = [0, 0, 0 ..., 0, 0, 0]"] ;
985 -> 986 ;
987 [label="X[0] <= 3.3506\ngini = 0.875\nsamples = 8\nvalue = [0, 0, 0 ..., 0, 0, 0]"] ;
985 -> 987 ;
988 [label="gini = 0.0\nsamples = 1\nvalue = [0, 0, 0 ..., 0, 0, 0]"] ;
987 -> 988 ;
989 [label="X[1] <= 0.1949\ngini = 0.8571\nsamples = 7\nvalue = [0, 0, 0 ..., 0, 0, 0]"] ;
987 -> 989 ;
990 [label="gini = 0.0\nsamples = 1\nvalue = [0, 0, 0 ..., 0, 0, 0]"] ;
989 -> 990 ;
991 [label="X[4] <= 4.5\ngini = 0.8333\nsamples = 6\nvalue = [0, 0, 0 ..., 0, 0, 0]"] ;
989 -> 991 ;
992 [label="gini = 0.0\nsamples = 1\nvalue = [0, 0, 0 ..., 0, 0, 0]"] ;
991 -> 992 ;
993 [label="X[5] <= 0.5\ngini = 0.8\nsamples = 5\nvalue = [0, 0, 0 ..., 0, 0, 0]"] ;
991 -> 993 ;
994 [label="X[3] <= 5.5\ngini = 0.6667\nsamples = 3\nvalue = [0, 0, 0 ..., 0, 0, 0]"] ;
993 -> 994 ;
995 [label="X[0] <= 4.9566\ngini = 0.5\nsamples = 2\nvalue = [0, 0, 0 ..., 0, 0, 0]"] ;
994 -> 995 ;
996 [label="gini = 0.0\nsamples = 1\nvalue = [0, 0, 0 ..., 0, 0, 0]"] ;
995 -> 996 ;
997 [label="gini = 0.0\nsamples = 1\nvalue = [0, 0, 0 ..., 0, 0, 0]"] ;
995 -> 997 ;
998 [label="gini = 0.0\nsamples = 1\nvalue = [0, 0, 0 ..., 0, 0, 0]"] ;
994 -> 998 ;
999 [label="X[3] <= 5.5\ngini = 0.5\nsamples = 2\nvalue = [0, 0, 0 ..., 0, 0, 0]"] ;
993 -> 999 ;
1000 [label="gini = 0.0\nsamples = 1\nvalue = [0, 0, 0 ..., 0, 0, 0]"] ;
999 -> 1000 ;
1001 [label="gini = 0.0\nsamples = 1\nvalue = [0, 0, 0 ..., 0, 0, 0]"] ;
999 -> 1001 ;
1002 [label="X[2] <= 1.5\ngini = 0.8\nsamples = 5\nvalue = [0, 0, 0 ..., 0, 0, 0]"] ;
984 -> 1002 ;
1003 [label="gini = 0.0\nsamples = 1\nvalue = [0, 0, 0 ..., 0, 0, 0]"] ;
1002 -> 1003 ;
1004 [label="X[2] <= 2.5\ngini = 0.75\nsamples = 4\nvalue = [0, 0, 0 ..., 0, 0, 0]"] ;
1002 -> 1004 ;
1005 [label="X[0] <= 4.9388\ngini = 0.5\nsamples = 2\nvalue = [0, 0, 0 ..., 0, 0, 0]"] ;
1004 -> 1005 ;
1006 [label="gini = 0.0\nsamples = 1\nvalue = [0, 0, 0 ..., 0, 0, 0]"] ;
1005 -> 1006 ;
1007 [label="gini = 0.0\nsamples = 1\nvalue = [0, 0, 0 ..., 0, 0, 0]"] ;
1005 -> 1007 ;
1008 [label="X[4] <= 4.0\ngini = 0.5\nsamples = 2\nvalue = [0, 0, 0 ..., 0, 0, 0]"] ;
1004 -> 1008 ;
1009 [label="gini = 0.0\nsamples = 1\nvalue = [0, 0, 0 ..., 0, 0, 0]"] ;
1008 -> 1009 ;
1010 [label="gini = 0.0\nsamples = 1\nvalue = [0, 0, 0 ..., 0, 0, 0]"] ;
1008 -> 1010 ;
1011 [label="X[1] <= 0.2218\ngini = 0.9286\nsamples = 14\nvalue = [0, 0, 0 ..., 0, 0, 0]"] ;
883 -> 1011 ;
1012 [label="gini = 0.0\nsamples = 1\nvalue = [0, 0, 0 ..., 0, 0, 0]"] ;
1011 -> 1012 ;
1013 [label="X[0] <= 2.7959\ngini = 0.9231\nsamples = 13\nvalue = [0, 0, 0 ..., 0, 0, 0]"] ;
1011 -> 1013 ;
1014 [label="gini = 0.0\nsamples = 1\nvalue = [0, 0, 0 ..., 0, 0, 0]"] ;
1013 -> 1014 ;
1015 [label="X[3] <= 1.5\ngini = 0.9167\nsamples = 12\nvalue = [0, 0, 0 ..., 0, 0, 0]"] ;
1013 -> 1015 ;
1016 [label="gini = 0.0\nsamples = 1\nvalue = [0, 0, 0 ..., 0, 0, 0]"] ;
1015 -> 1016 ;
1017 [label="X[6] <= 0.5\ngini = 0.9091\nsamples = 11\nvalue = [0, 0, 0 ..., 0, 0, 0]"] ;
1015 -> 1017 ;
1018 [label="X[2] <= 10.0\ngini = 0.9\nsamples = 10\nvalue = [0, 0, 0 ..., 0, 0, 0]"] ;
1017 -> 1018 ;
1019 [label="X[0] <= 6.7219\ngini = 0.5\nsamples = 2\nvalue = [0, 0, 0 ..., 0, 0, 0]"] ;
1018 -> 1019 ;
1020 [label="gini = 0.0\nsamples = 1\nvalue = [0, 0, 0 ..., 0, 0, 0]"] ;
1019 -> 1020 ;
1021 [label="gini = 0.0\nsamples = 1\nvalue = [0, 0, 0 ..., 0, 0, 0]"] ;
1019 -> 1021 ;
1022 [label="X[3] <= 2.5\ngini = 0.875\nsamples = 8\nvalue = [0, 0, 0 ..., 0, 0, 0]"] ;
1018 -> 1022 ;
1023 [label="gini = 0.0\nsamples = 1\nvalue = [0, 0, 0 ..., 0, 0, 0]"] ;
1022 -> 1023 ;
1024 [label="X[2] <= 13.5\ngini = 0.8571\nsamples = 7\nvalue = [0, 0, 0 ..., 0, 0, 0]"] ;
1022 -> 1024 ;
1025 [label="gini = 0.0\nsamples = 1\nvalue = [0, 0, 0 ..., 0, 0, 0]"] ;
1024 -> 1025 ;
1026 [label="X[4] <= 7.5\ngini = 0.8333\nsamples = 6\nvalue = [0, 0, 0 ..., 0, 0, 0]"] ;
1024 -> 1026 ;
1027 [label="gini = 0.0\nsamples = 1\nvalue = [0, 0, 0 ..., 0, 0, 0]"] ;
1026 -> 1027 ;
1028 [label="X[0] <= 3.3858\ngini = 0.8\nsamples = 5\nvalue = [0, 0, 0 ..., 0, 0, 0]"] ;
1026 -> 1028 ;
1029 [label="gini = 0.0\nsamples = 1\nvalue = [0, 0, 0 ..., 0, 0, 0]"] ;
1028 -> 1029 ;
1030 [label="X[3] <= 3.5\ngini = 0.75\nsamples = 4\nvalue = [0, 0, 0 ..., 0, 0, 0]"] ;
1028 -> 1030 ;
1031 [label="gini = 0.0\nsamples = 1\nvalue = [0, 0, 0 ..., 0, 0, 0]"] ;
1030 -> 1031 ;
1032 [label="X[4] <= 10.0\ngini = 0.6667\nsamples = 3\nvalue = [0, 0, 0 ..., 0, 0, 0]"] ;
1030 -> 1032 ;
1033 [label="X[7] <= 0.5\ngini = 0.5\nsamples = 2\nvalue = [0, 0, 0 ..., 0, 0, 0]"] ;
1032 -> 1033 ;
1034 [label="gini = 0.0\nsamples = 1\nvalue = [0, 0, 0 ..., 0, 0, 0]"] ;
1033 -> 1034 ;
1035 [label="gini = 0.0\nsamples = 1\nvalue = [0, 0, 0 ..., 0, 0, 0]"] ;
1033 -> 1035 ;
1036 [label="gini = 0.0\nsamples = 1\nvalue = [0, 0, 0 ..., 0, 0, 0]"] ;
1032 -> 1036 ;
1037 [label="gini = 0.0\nsamples = 1\nvalue = [0, 0, 0 ..., 0, 0, 0]"] ;
1017 -> 1037 ;
1038 [label="X[0] <= 7.1824\ngini = 0.9418\nsamples = 19\nvalue = [0, 0, 0 ..., 0, 0, 0]"] ;
840 -> 1038 ;
1039 [label="X[1] <= 0.2709\ngini = 0.4444\nsamples = 3\nvalue = [0, 0, 0 ..., 0, 0, 0]"] ;
1038 -> 1039 ;
1040 [label="gini = 0.0\nsamples = 2\nvalue = [0, 0, 0 ..., 0, 0, 0]"] ;
1039 -> 1040 ;
1041 [label="gini = 0.0\nsamples = 1\nvalue = [0, 0, 0 ..., 0, 0, 0]"] ;
1039 -> 1041 ;
1042 [label="X[5] <= 0.5\ngini = 0.9375\nsamples = 16\nvalue = [0, 0, 0 ..., 0, 0, 0]"] ;
1038 -> 1042 ;
1043 [label="X[1] <= 0.1793\ngini = 0.9\nsamples = 10\nvalue = [0, 0, 0 ..., 0, 0, 0]"] ;
1042 -> 1043 ;
1044 [label="gini = 0.0\nsamples = 1\nvalue = [0, 0, 0 ..., 0, 0, 0]"] ;
1043 -> 1044 ;
1045 [label="X[2] <= 1.5\ngini = 0.8889\nsamples = 9\nvalue = [0, 0, 0 ..., 0, 0, 0]"] ;
1043 -> 1045 ;
1046 [label="X[4] <= 8.5\ngini = 0.5\nsamples = 2\nvalue = [0, 0, 0 ..., 0, 0, 0]"] ;
1045 -> 1046 ;
1047 [label="gini = 0.0\nsamples = 1\nvalue = [0, 0, 0 ..., 0, 0, 0]"] ;
1046 -> 1047 ;
1048 [label="gini = 0.0\nsamples = 1\nvalue = [0, 0, 0 ..., 0, 0, 0]"] ;
1046 -> 1048 ;
1049 [label="X[1] <= 0.1983\ngini = 0.8571\nsamples = 7\nvalue = [0, 0, 0 ..., 0, 0, 0]"] ;
1045 -> 1049 ;
1050 [label="gini = 0.0\nsamples = 1\nvalue = [0, 0, 0 ..., 0, 0, 0]"] ;
1049 -> 1050 ;
1051 [label="X[6] <= 0.5\ngini = 0.8333\nsamples = 6\nvalue = [0, 0, 0 ..., 0, 0, 0]"] ;
1049 -> 1051 ;
1052 [label="X[4] <= 1.5\ngini = 0.8\nsamples = 5\nvalue = [0, 0, 0 ..., 0, 0, 0]"] ;
1051 -> 1052 ;
1053 [label="gini = 0.0\nsamples = 1\nvalue = [0, 0, 0 ..., 0, 0, 0]"] ;
1052 -> 1053 ;
1054 [label="X[3] <= 1.5\ngini = 0.75\nsamples = 4\nvalue = [0, 0, 0 ..., 0, 0, 0]"] ;
1052 -> 1054 ;
1055 [label="gini = 0.0\nsamples = 1\nvalue = [0, 0, 0 ..., 0, 0, 0]"] ;
1054 -> 1055 ;
1056 [label="X[4] <= 5.0\ngini = 0.6667\nsamples = 3\nvalue = [0, 0, 0 ..., 0, 0, 0]"] ;
1054 -> 1056 ;
1057 [label="X[3] <= 3.0\ngini = 0.5\nsamples = 2\nvalue = [0, 0, 0 ..., 0, 0, 0]"] ;
1056 -> 1057 ;
1058 [label="gini = 0.0\nsamples = 1\nvalue = [0, 0, 0 ..., 0, 0, 0]"] ;
1057 -> 1058 ;
1059 [label="gini = 0.0\nsamples = 1\nvalue = [0, 0, 0 ..., 0, 0, 0]"] ;
1057 -> 1059 ;
1060 [label="gini = 0.0\nsamples = 1\nvalue = [0, 0, 0 ..., 0, 0, 0]"] ;
1056 -> 1060 ;
1061 [label="gini = 0.0\nsamples = 1\nvalue = [0, 0, 0 ..., 0, 0, 0]"] ;
1051 -> 1061 ;
1062 [label="X[7] <= 0.5\ngini = 0.8333\nsamples = 6\nvalue = [0, 0, 0 ..., 0, 0, 0]"] ;
1042 -> 1062 ;
1063 [label="X[1] <= 0.2327\ngini = 0.75\nsamples = 4\nvalue = [0, 0, 0 ..., 0, 0, 0]"] ;
1062 -> 1063 ;
1064 [label="gini = 0.0\nsamples = 1\nvalue = [0, 0, 0 ..., 0, 0, 0]"] ;
1063 -> 1064 ;
1065 [label="X[0] <= 7.5353\ngini = 0.6667\nsamples = 3\nvalue = [0, 0, 0 ..., 0, 0, 0]"] ;
1063 -> 1065 ;
1066 [label="gini = 0.0\nsamples = 1\nvalue = [0, 0, 0 ..., 0, 0, 0]"] ;
1065 -> 1066 ;
1067 [label="X[0] <= 7.6532\ngini = 0.5\nsamples = 2\nvalue = [0, 0, 0 ..., 0, 0, 0]"] ;
1065 -> 1067 ;
1068 [label="gini = 0.0\nsamples = 1\nvalue = [0, 0, 0 ..., 0, 0, 0]"] ;
1067 -> 1068 ;
1069 [label="gini = 0.0\nsamples = 1\nvalue = [0, 0, 0 ..., 0, 0, 0]"] ;
1067 -> 1069 ;
1070 [label="X[2] <= 14.0\ngini = 0.5\nsamples = 2\nvalue = [0, 0, 0 ..., 0, 0, 0]"] ;
